{"format":"agent.v1","net":{"format":"nn.v1","softmax":false,"layers":[{"inSize":42,"outSize":64,"activation":"relu","W":[0.18487627674754703,-0.1106445253941322,-0.15145461293721385,-0.029812237528590062,-0.01259876485038215,0.15849638757846352,-0.4819820669221022,-0.32308750590332425,-0.3527791428918588,-0.139154729973607,0.2290697799470997,-0.30164998440507845,0.09846350625503907,0.023577527145789784,0.026999261046702756,0.0011295312441689583,-0.3654991259984684,-0.21920297435511407,-0.58852874617379,-0.10290419500296996,0.2020072974476914,-0.15551617765288778,-0.3598713718219761,-0.27857773728486435,-0.3750508664892346,-0.7998171934434677,-0.35857924086408566,0.22019089107035358,-0.1267697323157033,0.031494054751279754,0.2948818071233914,-0.2672802628391365,-0.2389139263419801,-0.14481590033867198,-0.25450451924396095,0.11288375267930251,-0.19908469593152164,0.032083914061484926,-0.22493557210372833,-0.36137475413980463,-0.4297022664444322,-0.40626349972309533,-0.14992495205834047,0.2502354811228012,-0.11170028901233783,-0.3150552690041743,0.05025353442619909,-0.2956063266950229,-0.3316349778282387,0.07918100113916719,-0.15257686157545297,0.23884340935426762,-0.331628781630578,0.01173215936189388,-0.13572936603952993,-0.15062290514223223,-0.1194161364677845,0.11255350491192226,-0.0995920806524091,0.2229660237517373,-0.25725636526760903,-0.5491215261161531,0.17686289423211324,-0.07607155370174631,-0.4791871063942052,-0.4204548893962691,0.1281192377737683,-0.12617054732442298,-0.24362184949656374,0.11335285104145541,-0.3425695319150002,-0.21079596893198185,0.318484127310237,0.20514390982990294,-0.6134939261246584,-0.03464664935809994,-0.5291951008138323,-0.02623718929568353,0.09648866624206924,-0.11448529544780404,-0.24165306425787061,-0.5818738788778719,-0.23764333867294443,-0.30489706478017603,0.48579114682495234,0.28479115510864844,0.42027462963649015,0.599116381787649,0.37642300746577784,0.14686780488979542,-0.26928891652827774,0.08172262958395289,-0.17933557953328041,-0.24440974168239757,0.17265493857420142,0.3251812596007197,0.2232575097353196,1.0375171663858822,-0.13191331181523866,-0.5925228696845058,-0.7954716321809377,-0.1207856404524279,-0.038573575737006816,0.07631254010003606,0.7488651433419439,0.17008925034668956,0.06158792850113757,0.5477536707525887,-0.7021140580627978,-0.4283479950965602,-0.7391244878262662,0.23955694523523635,0.11163092631689397,-0.08154334813977293,-0.10926813671020587,0.13945467976753403,0.03160765916857634,0.19390595190192725,-0.4992792947511562,-0.16395482612871287,-0.9714771885881107,-0.10555107322350901,-0.09669171691953785,-0.3203092832706251,0.38291112752253226,-0.5844706664796777,0.1655546682506926,0.057511228031350344,0.41674758531629047,-0.43871944985466604,0.7366426927240668,-0.5094578087280955,-0.4842358752778278,0.3702303444769775,1.0193747131047042,0.5421119453085811,0.1698884454485371,0.1225206485710456,0.282723931111338,-0.8677716037974751,0.5824608193259024,-0.28442676228418823,-0.6002183219502215,-0.08250500907371025,0.6926370972509458,0.4017572254889997,-0.20020371820403965,-0.2435336145097007,0.43007356243354017,0.17850854976465755,1.0250346111111632,0.53905047389628,0.17846176712529793,0.80382825849114,0.4624201628517677,0.32961555718635904,-0.43788895888207635,-0.1231731809871442,0.5207215214106982,0.08651400825454995,-0.13597734660710029,0.09982832351679526,-0.0018336721678469043,0.20510588109259834,0.9182720469196647,0.6631964995692226,-0.7871683454101678,0.04950189410107403,-0.04108246292663536,0.0008037119561861722,-0.19562916108788808,-0.2188745899387768,-0.24784600331004802,-0.03871956767653085,0.13330183636150417,-0.2888398772080766,-0.37555246729951863,-0.559918130786426,0.06668862687873577,0.042592198684142844,-0.39674862238163267,-0.41394325578029384,-0.08564718028325538,-0.19320327303685,0.3464622428670355,-0.7001720225933068,-0.04890668381179384,-0.8621641439285277,-0.1443552220165811,-0.24824042445390365,-0.34872443619261345,-0.11428601415493295,0.24694711024541033,0.12193418034067817,0.1706095682455645,-0.600372261530605,-0.32067074953833274,-0.7579199585100018,-0.13901583959823544,-0.21654305068832647,-0.0402066716888587,-0.045178872863562446,0.09278724643440932,-0.0784718843967022,0.13211682449372517,-0.08155400037986675,-0.15586055520673955,-0.36079196351150167,0.37060233555252015,-1.2118537643098535,0.4703617407811877,0.44736232579142843,-0.413018209694268,-0.17801378177762342,-0.1350428554359653,0.18779408280321003,0.05615849899181925,-0.2081913043028206,-0.2765146579134668,-0.7567737995003393,0.31054272190086407,0.23330075890618635,-0.5781705110982939,0.08326745309447357,-0.38055979977548,-0.4515715178815044,0.21079697267262004,-0.02582101400648874,-0.3906772632693342,-0.6378933962640899,-0.12487832608085862,-0.02517511062086729,-0.3197929368631236,-0.2681547244220739,-0.7851666743940734,-0.48313556035746175,-0.3863818987202064,-0.7357370040240861,-0.3689266516759678,-0.2331150005896633,-0.05480494537725041,0.6120334133256371,0.25913964858777977,0.25535804184645916,-0.698637985195126,-0.3051144983542665,-0.44304296445247326,-0.7849739079491955,-0.7428988155556413,-0.45731830857916805,1.352409628995255,-1.7584873890525938,-0.15921229052905972,-0.25837797819634484,-0.04881554415793555,-0.13751887587930395,0.0722656741649888,-0.29700434059327335,-0.1422716013503537,0.3889057782013174,-0.386420635290198,-0.313809195952371,0.034830679735388725,-0.06020014499897193,-0.421646843670855,-0.19546185706131597,0.09889979767923282,-0.12328248639359245,-0.2609450037915841,-0.09383495955900364,-0.22381321515333322,-0.48329647476347676,0.2084310606402378,0.0730550259730134,-0.08073617849194166,-0.09763421633802469,-0.2458993988626217,-0.18466729166573373,-0.44730134419613493,-0.157479563073779,-0.10453802024354024,-0.07779943985912066,-0.20981258801108899,-0.017916755006206295,-0.5121768581939006,-0.2598297594163874,-0.29704067483231283,0.014306135738792846,-0.2419940698530419,-0.03223236680941855,-0.283882634967949,-0.3728933794344209,0.08889845901732626,-0.28252890348502496,0.3728057126918827,0.1375837505059619,-0.3101665056776179,-0.7679613538996455,0.760767043077747,-0.8145214591778134,-0.04330358888709637,0.08906672656467728,0.8826614298754576,-0.5559226166997177,0.14662932854937613,0.12331776979154903,-0.5434185788470403,-0.3821488018478293,0.16236575172149528,-0.49905206876268043,-0.6142415382226363,-0.3008095564830485,0.40867538313024315,0.10712708023650352,0.14455323539926632,0.5117674461974082,-0.2924580394903433,-0.1364027132383281,0.06334621697638414,-0.5496579576379569,0.08097905265928738,0.6896102311643307,0.7014975329886024,0.20625951503987763,0.26832660606201525,0.3544521329111655,-0.34183681938161425,-0.29230074595187683,0.5093097528308097,-0.4563171076686279,-0.2138063223111758,0.2897310783706622,1.0864429666782478,0.2394506847542477,-1.425447372544508,1.2241391714911298,0.19928101921552427,-0.1715896397057261,0.04815274492342603,-0.3504434687602436,0.0100194826229354,-0.03584841367886344,-0.07534814982782113,0.15204547781995095,-0.26543603051805253,-0.48525997238199897,0.38983551750930995,-0.025345334810423073,-0.5704160347019833,-0.21720641051779935,-0.0009633884713826971,-0.37524847722447124,-0.19186098684827835,0.3648976717519403,-0.443510104221021,-0.3386564117740998,0.10050678628121071,-0.12643671297844156,0.029374244041627265,-0.3243808538444751,-0.6130296847581826,-0.37266571360101736,0.34323547791314507,-0.3216876045216279,-0.0775895856154904,0.27417332958510654,0.14580262459309873,0.25162689142300415,0.16668089193763352,-0.16716195752724772,-0.03378946186031004,-0.09756285901593272,-0.05505036396243568,-0.07865939273723299,-0.04311270633233521,-0.5251975147050764,-0.3950418723439734,-0.13192381384889604,0.007373995053761075,0.4112351324983959,-0.1750218550503107,-0.5169099590073831,-0.13709032400435955,-0.04622895944421968,-0.32198431824803597,0.25083908009094846,-0.27266433141155977,-0.29095756503343223,-0.07332631826035176,-0.06454004235251351,0.07153041977222262,0.24486994277897198,0.09514929932739477,-0.1485884191472474,-0.06204873604460145,-0.48662811755954044,-0.07865900880842537,0.13559475959552028,0.08270835059030837,-0.24171640662389726,-0.4519944367422678,0.13114582226758045,-0.09179289684278291,0.10547542006152773,-0.5263086980775776,0.045957209118425595,0.42449726893190654,-0.33810421749555997,-0.12985542533609665,-0.20018565486694034,-0.431436514714852,-0.3736000880279579,-0.10403006642150299,-0.006168666621947009,0.21940264980930985,-0.05467532028839237,-0.10604535982726036,-0.08974991988570984,-0.84747397188348,-0.40108458888218085,0.4098986874501262,0.21843360179725274,0.9264797946524285,0.24665910507432093,0.09387826539734707,1.203114331608537,0.22523317587312236,0.978994359456774,1.4703090972196664,1.2101658610643689,0.19644640618951947,0.21791291896360634,0.8236395409601588,0.6012520716888553,0.5632075256246569,0.9583401849816252,0.2937412055039693,0.8165140071126482,1.492382852374152,0.6265104316702202,0.38284443988621886,0.0661786662309259,0.4634045444691613,0.8441322409779279,0.7193565884052112,1.2684808448138798,-0.27700834459292845,0.3913783277690661,0.5538398318407743,0.15704228517047975,0.12620796847481128,0.5070637008450988,0.4184480492053974,0.8264837231284197,0.5012743873829968,0.5298881837183425,-0.1374543327023887,0.25339230059612683,0.21674626804822533,0.06749123697328906,0.0196994179899297,0.31281076587370665,0.0862700400656549,-0.23132141034308207,-0.012087403834579813,0.012719559039422129,-0.30563079495067286,0.11102771464303975,-0.26183797497781264,-0.5751720398687866,-0.782493920215756,-0.801950097884073,-0.31635584310373194,-0.10586447890571311,0.010179161767281389,-0.08735378006488387,0.1716765195024999,-0.2972675647851934,-0.2655159999532814,-0.32718819214056843,-0.4741781198007576,-0.4291732681714532,0.020765593365920456,0.03354048135206865,0.06649271585680107,-0.3874112633110214,0.14840532037112808,-0.13027338653603054,0.36824079551788624,0.02931331148863119,-0.5104963132094786,-0.7245586069265811,-0.12206430256697974,-0.1952207423840004,-0.4100433592748783,0.2297724201549824,-0.017623642129963157,-0.4879508423744183,0.4258477312460689,-0.07628466224483883,0.04522277515560485,-0.7689223757740387,0.12401063213760001,-0.5969010181278922,0.13230036383275906,0.13269967261031887,-0.0310054897050645,0.5575200183318524,-0.011634574580142441,-0.396875670952047,-0.0275199676344621,-0.31893471485802716,-0.7014827948712059,-0.34207836744329834,0.4612565334522991,-0.07172796876834635,0.10731094016751215,-0.08009959507613612,-0.09783025384932789,-0.027888373214819257,-0.22613764071753092,-0.5136579520885007,-0.511108162359947,-0.5654601909068286,0.15786348965633007,-0.5813969924417424,-1.0319171876893882,-0.35176896185618844,-0.5522946640655225,-0.8006136707819858,0.6242375435429545,0.4631394129657558,-0.370580796297969,-0.6081757693220029,0.17227817374024162,-0.22077899532689196,-0.3813692486650573,-0.19278746700399282,-0.18431770246965992,-0.7889712844501805,0.37262747511920363,0.32090317115847977,-0.5216105329432613,-0.46502636506435724,-0.6079017662527446,0.6800238664281884,0.04819391238942699,-0.21022582097264472,-0.2830011358639661,-0.33085231668748977,0.2749887232170169,-0.5332701156725294,-0.2366308284610172,-0.10657272783532072,-0.0004450831865351174,0.0020461185420420263,0.14528785200596753,0.010777494620791167,-0.5783872985743737,-0.3802999276059385,0.2538988733692789,-0.47156015753889036,-0.210178635512362,-0.19537797921444836,-0.13583960423962477,0.1489610312430677,0.11432586734772815,-0.11460116323957423,-0.5837588841621358,-0.171087428789416,0.06194661742780273,-0.5840582660340867,-0.3822978894278965,0.7447506862508265,0.09632929161239678,0.0725547228518033,0.778321525545304,-0.383814676292946,-0.5481975286936436,-0.07745952247377236,-0.26998554028076965,-0.5641284422521438,-0.028229924692621245,0.620355581506846,0.042042183862131835,-0.25391305462026253,-0.8627416963827117,0.25029896834205245,-0.3777954417009422,0.08534056754699208,1.2474776936004783,1.4053520685757184,-0.43722788848422117,0.44628423029511594,0.33495902580046344,0.5101118462739925,-0.4679412734704521,-0.0468672118631521,0.15764177067651802,0.947054069417736,1.3845102201495498,1.1060143663544642,0.0499897234052552,1.2359253141034383,0.5329085262274034,-0.05402154837168814,0.08340982731864181,-0.3365347465309885,0.44854889717601537,-0.17291137801408946,-0.22970293794339258,-0.06804312978871392,-0.2512454270576427,0.1428837439696596,0.36181501151106266,0.5837416914094046,0.12599083382811457,-0.21649938587537937,0.05378602183964655,0.153023902523793,0.2532770616458441,0.19320311451562766,-0.8643151231043582,-0.3618877127725853,0.6855969674096463,0.12928292652595133,-0.05853883812495233,-0.4158002909166656,1.371289816478943,-0.9309456033195931,-0.11947383431961331,0.28332583759061664,0.08993554630456471,0.36674188718833334,0.24853408169321722,0.5881794245608215,-0.017034402454927315,0.010868880774827084,-0.34964808749497045,-0.1614854083585326,0.12512241972476762,0.3845202352928028,0.05811794935077308,0.13858040415459785,0.034461349152923045,0.615397358872966,-0.00814338405941621,0.023569274121103708,-0.5422605929901675,-0.1166809671900198,-0.2118485232646854,-0.35384422888208283,-0.3478731838081713,-0.11803713880713991,0.2992872651381451,-0.09142662385863401,-0.46494579174116224,-0.39545969221431304,-0.729174803748533,0.03343203733290565,-0.28941637948729076,-0.656121046819484,-0.3932751321697142,-0.06507968964962597,-0.27563693082429813,-0.013529307517260097,-1.0242963329110943,-0.3917713999186895,-1.0239148240013771,-0.4566505295628112,0.17799342754394684,-0.7246038965835755,0.13555624147236514,-0.5365689540125097,-0.261997681884965,0.02992654787451306,-0.027594906126060154,-0.04233148909001552,-0.41622903871063677,-0.14749852461465987,-0.49907421686054243,-0.3168101096572634,-0.25012263055845674,0.019913881968341793,-0.2579624349761812,0.1336300059381888,0.18435907830400128,-0.04567973193377535,-0.15535928447807246,0.09093517339332613,0.2432063051643796,-0.013804427570587648,-0.20683019529581298,-0.33984415471035473,-0.10455547693812964,-0.11607190411451297,-0.029140502707226554,-0.2776279209110463,-0.13946482651282593,-0.2906190425207238,-0.44837496512984376,-0.2839416631327089,-0.4670991228169284,-0.4350669144030824,-0.10336754213801057,-0.46281206958887633,-0.12476415892088795,-0.5355988033769252,0.038766816550161724,0.09910070174084468,0.1935461157050889,0.053111850969471026,-0.16639344752546556,-0.22329964375802894,-1.0050901676378938,-0.945579099030628,1.1515561547282969,0.7699686643713948,-0.529983366000858,0.496016152271507,1.0295952847261236,1.2340269091056881,0.1719189204593229,0.9268250307724648,-1.5815844287962675,-1.1816205868097949,1.3871527838962365,0.6575758491552894,-0.3656858421677314,0.5065509825167004,1.1861161723243858,1.1245869882910338,0.32076079754884135,0.9885111939642929,0.08756465240701543,0.5904447817105485,1.4110713868066742,1.4851886689822236,0.5733873456215165,1.0847112661710265,0.2928519685481332,0.6010480327205693,-0.2943802558491637,1.0777739689006538,0.30060220770467216,0.03011623810326662,1.3129734094591257,0.7713068228431017,-0.011544305510648945,0.9035465074405571,0.5122799147071885,0.30614577472664134,-0.3341328102552504,0.9078503952797027,0.9938986683739133,-0.4744898333281273,0.48977336299268653,0.7889547869295555,0.6485694107774452,-0.5977305214402052,0.03268857146874935,-0.32773045685826696,-0.14869933056116644,0.2614859796347908,-0.35745759677991473,-0.18685364962526096,0.06811501278506868,0.7600045775378091,0.5022028051069137,-0.19537478563709232,-0.07074683911262833,-0.3430989839634477,0.02785577364551354,0.15453745989912182,-0.3727561603223816,-0.14552035352362708,-0.4030499025229535,-0.17832816842133625,0.7604242117033175,-0.254699837180427,0.13056009771628527,0.38793042804255234,-0.1711473950185473,0.045828653258493834,-0.3936711887830164,0.46575078001072767,0.018115625731413895,0.5462910004963689,0.5776265570349831,-0.1259465796803525,0.2903484905116994,0.4655151074109661,0.11283614170792891,-0.15556234577208503,0.18515446645867817,0.17250463971791707,-0.08826696374332327,0.42445885414455453,0.49549608945323276,0.41816092047830394,0.34818711062506263,-0.2526548834528309,-0.019215004585834798,-0.06021216031805969,0.7057785665546296,-0.01337050719326688,0.3000038155056507,0.5662455897326427,0.4847941406081413,0.5358752496554201,0.3933059826777781,0.04616662059938274,0.16196361319504754,0.173067224840239,0.6869466233676104,0.597796500744165,0.20289027496785073,0.5221291347702681,-0.34325446863158204,0.6267491165082425,0.9575900582154243,0.4264774238818021,0.2248261223872357,0.45083890530701404,-0.41505998870153016,-0.6156669103340116,0.587458332119074,1.2673354696348595,0.15199878787314947,0.12577673384568924,0.6874894588377788,0.4676215084505209,0.359370838162964,0.9347860064875609,-0.1176129983854173,-0.18999350613263832,0.6597021778209069,1.1165061868516233,-0.5184055155801249,0.8856404324555234,-0.29387266251698735,0.14774647621466017,-0.5094978781997174,0.2789551933789262,-0.5159158433806127,-0.16210756273755933,-0.11732055332878533,-0.17680276316670146,-0.07088787942184681,-0.35507724789463996,-0.08558172176805066,0.07211912991482021,-0.7024705174315733,-0.15138606911810948,-0.42623629943217684,-0.0029536247359799395,0.10853546103855807,-0.6505211938459442,-0.2631694809051433,-0.0749011299576236,-0.5530552570494705,0.04560310502756934,-0.4084409558159168,-0.21090763508560378,-0.08787120864341241,0.17825020680221518,-0.08314557630815754,-1.0837375882218607,-0.8371611243146013,-0.6718224275296126,0.1994124756097102,0.0611206470503422,-0.27291019914831577,-0.47045392703323874,-0.26031938404574106,0.010434258925445994,-0.02144733831921489,-0.8085802417624796,-0.6796992315249242,-0.32710961554797696,0.50550756659601,-0.09664970680016774,0.19147511935255704,0.10089148999952613,-0.36447744972737744,-0.2924289015544589,0.13585006050370796,-0.05141525134399514,-0.5348803966557449,-0.12363402629422628,0.16852896727213487,-0.10378674894481303,0.036813858024707026,-0.03107119190082493,-0.6827864863286531,-0.006770071012001664,0.010972951175883882,-0.20110904717163558,-0.2092628018004611,0.2914769233986722,-0.31937958837469027,0.09097069425946512,0.14312788672160784,0.14208465408262935,-0.2666874696884449,0.16632927519920615,-0.5299872515418391,-0.5744599888879339,-1.2106459919908035,0.20053312875297855,0.288758951050901,0.09797814875336498,-0.0457590915655734,0.2122246251283343,-0.16615071510586135,0.0013356587764890187,-0.11556652482936924,-0.26483525706490985,-0.5144513752174119,0.2683640382609161,0.5440229382910622,-0.3299389448429628,-0.3889677889590486,0.17079955441377392,0.3596293783216591,-0.02526863917300944,-0.2590923680023894,1.1417782459826356,-0.3300339115958542,0.4282786577145365,0.2537865711557775,-0.11198227634313346,0.11309464268749175,0.08254443536804024,0.16582887369850227,0.12825160114491568,0.4326909586492886,0.4899708954500366,0.44662747033908323,0.3935597512272379,0.2787354670375743,0.3169835335217254,0.20768411955300975,0.34870893782842804,0.26294265256039595,-0.03718470691606525,-0.07539840195141678,0.7754987826864312,0.1772037089399184,0.1891819864400024,-0.07942342140622508,-0.23147717499398848,-0.5250570784691616,-0.6594161797818797,0.2865264113215677,-0.20512743724692728,0.01171904409955736,1.051476657792557,-0.17362399674554221,0.241660688462992,-0.38314001258822084,-0.1878561885689875,-0.7112404988188686,-0.3180676587221876,2.235637401377853,-0.909707380528255,-0.0954660934011852,-0.01972418429114865,-0.27739578032852985,-0.013213258718854214,-0.055472915712186065,-0.07520426905147756,-0.3437552184409039,-0.04523477843644963,-0.35523941235555684,-0.14934234075778938,0.14502527774807364,-0.3468555615140265,-0.0964896905882544,-0.24180318003627957,0.03280743529918524,-0.426795350907162,-0.1475930988792157,-0.01866761258003475,-0.2949820399463506,-0.24204639733718553,-0.24234515663047682,-0.06972008864231609,-0.32768507683297554,-0.3173635745963214,-0.18744111187828194,0.17172864737093008,-0.38742504534103966,0.006385792277004738,-0.29640328486558626,-0.02729475955890354,-0.03924154245784547,-0.3810678866287627,-0.3330157112759269,-0.34731814707731695,-0.057919549791216274,-0.15046130300741126,-0.12635176293210273,0.15841267125296987,-0.2052040639551193,-0.24336511039307268,-0.4047443056641775,-0.02235032847647637,-0.11369710013773301,0.11182923439554689,-0.3140463655249043,-0.28528351309274486,0.23405631323320775,-0.18889858043964403,-0.3579212958682953,0.06624942238078645,-0.6572933777864368,0.16839943154899467,0.1272792054330355,-0.2040469214872115,-0.5719911875726333,-0.21379195802071232,0.20577620696942173,-0.13742494586920675,-0.6194117866965044,-0.36969803883934393,-0.44989695145418096,0.3276573500217516,-0.3005408767806455,-0.04579438600001777,0.48418344500249333,1.143928854984604,-0.5795524087139737,-0.4916056203998391,-0.8296097003745937,-0.4297948256404496,-0.5489235054250364,0.05258195361587589,-0.12256746977390934,0.13559795700093916,0.5832200515619932,0.9727312649437675,-0.30304712195331385,-0.38932158620874974,-0.44208664504563966,-0.16204459697076096,-0.8045315325201852,0.20671252627561193,0.11249931991238765,-0.09099508608817142,-0.6439335789402677,-0.09827360234441303,1.012241742545758,0.4121213651563665,0.22383413261579896,0.47754666869059287,1.1335137655498062,0.7369585812781251,0.2658020775153997,0.8860081941877471,-0.6078151004955388,-0.35584972010980487,1.4270385001241055,0.692034517571316,0.10569376542811466,-0.0027287466072460796,0.9849658199081435,0.6007960391562055,0.6593121961028934,1.129314335211338,0.17927118188475089,0.6009768105842033,0.34176703298216954,0.6328291137764013,0.24567617295330804,0.9456235494239996,0.7832178468489822,0.2920051442621926,0.4054245974861432,0.7339032160814621,0.6189157198451389,0.6398892820821004,0.5479482585412602,0.5419008354956444,0.8962706064164079,0.8198002174989801,0.6301291152290392,0.19775989175872363,0.6248424600725279,0.4510525362567357,0.13508538713465368,0.053459306038698744,0.11993312601211951,0.4506532533996351,0.09122519663783751,1.1191285974752445,0.058038227834744494,-0.002229364782596613,0.18310339171146464,0.1130474830007439,-0.65435937841865,-0.3315133078055557,0.2858060878058742,0.6183962921614924,0.5182835439882922,0.8165880477045132,0.4970453808350344,-0.2656545390184284,-0.13860140690487438,0.25128435793572673,-0.48331747677509446,-0.20385997973101844,0.21512916620811334,0.7896977361308736,-0.4654036358564206,0.35646819833034515,0.021176769728655294,-0.5757918500173614,-0.1714867707002695,-0.28269831268252354,-0.23500890898639415,-0.0530529543293009,0.11136608921068951,0.5538026286779903,-0.4007205797628566,-0.32118233334983176,-0.22480550897894128,-0.07252289558632757,0.09404997957723457,-0.530397460266711,-0.10740558601433776,0.3454316226734693,-0.260127135902784,-0.6777719470327768,-0.019382962392959596,0.1764645654319091,-0.6003480566151221,-0.09046982666265431,0.1462399766823989,0.10795447506694225,-0.43429982530767014,0.08441977316323047,-0.10205984133924961,-0.03856250388595493,-0.17643670965027855,0.004572142140292487,-0.009103871121520344,-0.14541434371353582,-0.12224769445954196,0.03838713437234118,-0.14235500351573868,0.13397724922344456,0.15675403646886574,-0.49822000367885977,0.21955514670892828,-0.08366541658738268,-0.5668281810789624,0.015149791414009628,0.13994245975911546,-0.2443476563911234,0.17465409751528976,-0.15753594230906337,-0.017017301778891276,-0.2592625227726358,-0.18321924077564508,-0.18163590208061953,-0.27705893705594237,-0.058516943153692894,-0.144441550786794,-0.12496385298126941,0.2963395108137035,-0.04782046770510764,0.0671554648787102,0.037648359965841115,-0.11508808086349309,0.011959524620519852,0.1406665095201392,0.05767625127151366,-0.04543394821075431,-0.022853365459137992,0.13880993748030349,0.030980923246481603,-0.3388145334715847,-0.05900653730885128,0.09138225405649178,0.017577672669245033,0.42657046989332736,0.4681630757384232,-0.2290819274201909,-0.385900761469071,-0.510003763599989,-0.06360787308684418,-0.3133267519146138,-0.09973977426175205,-0.0651026187588826,-0.38929166144428456,-0.07962770102796171,-0.5028810627730255,-0.3037489191336367,-0.5259864364785317,-0.17830321335698465,-0.4991781132473326,0.19700445028200692,0.3247147246837325,0.07234350500728408,-0.3028890135094048,0.5488305749987581,-0.4334764739925516,-0.3125754749078345,0.35783867282854004,-0.47908424050322035,-0.1930507440364284,-0.2537059942677416,0.809021020674935,-0.029565189758419035,-0.02419465460414371,-0.8573254887667228,0.3383610723733236,0.12908359661846575,-0.013606830679896329,-0.27879994631679306,-0.6202513675002581,0.307045331110159,0.0914803374050087,-0.15899849975939567,-0.13847003628487664,-0.149046674327185,-0.42279743024594785,0.15171184900399812,-0.2523511919462003,-0.07880693467143907,-0.4999000032042913,0.062348557605092954,0.34882475831080745,0.012548121561382195,0.07712432646688495,-0.234629368485778,-0.25281774031468884,-0.35162406970316024,0.2893833710458965,-0.4157647711177242,-0.3973537996006611,0.22288605384841603,-0.10309956916363759,-0.06531683901228161,-0.3013168232376057,-0.43504971900103684,-0.188084679550469,-0.02113616381302859,-0.10449328558253007,-0.19893798289090248,-0.4859724117627384,-0.006524724284690566,0.5244237026907463,-0.47261926960927336,-0.42772409795068633,-0.6007306272014017,-0.031094080731884962,-0.7599827906447617,-0.6834334785046879,0.045845345041986035,-0.31173423192265326,-0.4063891031291017,-0.1574881675028939,0.018874244097875373,-0.7139119216902884,-0.5945028468280472,0.22200378973430798,0.25825656326825974,-0.11850537975499913,-0.10303650024659254,0.22753100470382007,-0.16817239153041547,-0.21116257245777229,-0.026720948602485833,-0.09579872884252841,-0.4956413096148759,0.03854776563577649,0.1533994656222762,-0.19839742213275915,0.25623337510425104,0.6656345365186528,-0.10294805176589682,-0.16056383553376385,-0.14679957190175164,-0.8661578022819661,-0.30843800901208684,-0.36497405658029375,0.248416710119998,-0.23427391025780805,0.16541425199016935,0.2545518759211484,-0.58001724054162,-0.08483245689961212,-0.4828438470572178,-0.1382659108478079,-0.543998291059583,-0.007445700287798963,0.37341560618702985,-0.47802535150530107,-0.3758549292111454,-0.1282563996446801,-0.3232787212492214,-0.14331499092948327,-0.07764538162774454,0.032820969695086494,0.5414610469984765,-0.2708920677380577,-0.6697395402614568,0.22619418449856044,-0.08421905607991108,-0.5143611627207878,-0.04307636405487991,0.04969561622906514,-0.45077546840893096,-0.33515893504234584,0.2668084308959067,-0.0954992153249221,-0.09728480168995918,-0.22934656869654343,0.3647157558016194,0.15135130217968104,-0.45525596153747766,-0.0861867997713922,-0.4495427589364121,-0.6067209201788805,-0.539425818486942,-0.0014498452754646875,-0.4977216764754154,-0.37555968913582444,0.29512043428830664,-0.09300830098990409,-0.4109611237509857,-0.1471464314851393,-0.7136637350512774,-0.5194125240752244,0.09184466145142482,-0.203912005911715,-0.5651450229415611,-0.08999856358860112,0.3354379657278477,0.06945465751748182,-0.8095989695007674,0.09855064979823608,0.11009819504594408,0.15121829890537294,-0.10562132571279924,-0.104342823881447,-0.06221911618429539,-0.21993656917637927,-0.3437941481633321,0.26878862459955644,-0.2929868945664829,-0.3649620934442501,-0.21959984296482607,0.17952509875501488,-0.17769261448547755,-0.550378307595436,-0.09829887882982374,0.25589230877228425,-0.6327456975589342,-0.3179832630153625,-0.024149627026202297,-0.31737650973761883,-0.038894362325628276,0.1424640802075437,0.1334641072948455,-0.7608915988531085,-0.37232956088112695,-0.581874906266062,-0.38235318003684055,-0.05194101913839349,0.07061971688719498,-0.5116070781502804,-0.3737977711040364,0.18357875967363085,0.04740276131868389,-0.17481156308974447,0.172560200216071,-0.13214668537473961,-0.6514001801797094,0.15140777230411898,-0.1359859959583098,-0.5350597104909285,0.1987299162772585,-0.5687713725838104,0.013430753189301748,0.09952002907193926,0.018565966993872602,-0.43330185743818816,-0.46977748095683325,-0.3519645975181065,-0.20656321146168471,-0.31423290400240234,-0.46981337387975947,-0.34671797562910595,-0.32626542802040304,-0.08231522039482093,0.036589164236397256,-0.6081461625866134,-0.5459915976732581,-0.30371735232170033,0.16326128161877546,-0.5990009194479783,-0.8044303384765179,0.15847832337885367,-0.4467506398843669,-0.054078357650142454,-0.5758417138403822,-0.5536533065792049,0.0341592982379351,0.2579175068107052,-0.13094413514264536,-0.028398265152175632,-0.13429340619618108,0.1704018537760204,-0.3177420956839568,-0.2735057802624975,-0.29821659479952667,-0.021046073570849998,0.5434264414251543,0.1684471994072505,-0.10195360539536925,0.1981666520006577,-0.2611193302508221,-0.22690631903954872,-0.6063627386901859,-0.059430846432786184,-0.6464399877622367,-0.6630574948705941,0.5809501112880578,1.0371580736431294,-0.2926436041941273,-0.2376709896852705,1.3695786625748014,0.9314905191991432,0.8097852488839498,0.530754499800519,-1.116052205977556,-0.4032889097946225,0.9174938316347508,0.9983809989919511,-0.47828478227661403,-0.13555085502890135,1.4371566870871961,0.7119498780498034,0.9454588322674928,1.093812381907426,0.03074412669681,0.2947492895453049,0.4460023169950726,1.3835053356433422,0.5885104011978414,-0.17551834982675027,0.16539925757435855,-0.08956366121861754,0.9039285621147747,0.23931479035462197,0.3299464132271525,0.3347261913955481,0.5139197645360329,1.1911563394608302,0.5411404588969697,-0.0413287847389352,0.6268469912717433,-0.192323289277386,1.0280372495220997,0.7311781835377141,1.22087591471328,-0.4305441972447009,-0.33444859908921054,-0.24079397196366478,-0.02542247681426272,0.0780700988734205,0.503400512501039,-0.11884628770401603,0.6578566781814595,0.7766275496402325,0.6850746318245734,0.41761572167707944,-0.24416296482956815,-0.41828099083705594,-0.3499068121937129,-0.12406532598180996,0.0034524870942943377,-0.15300493925620393,0.5897673913201482,0.49423769567797365,0.6918943191552838,0.13010640975861573,-0.7545369830594423,0.006458208679076159,0.6752176878246732,0.7842660866971741,0.8793157969118605,0.6601615699855081,0.8522108103802395,0.4398150644870509,1.5199008233132796,0.9327182239412641,-0.6017364203189313,-0.21975281828796603,0.49525098589433714,0.8027847959654816,0.5728532919787604,1.169759662572996,0.3549683574731553,0.12353328358997578,2.0212338957769527,0.8027870812471933,-0.872614838099389,1.835446459275957,-0.5829343321737144,0.07105355348755842,0.27768151771607036,-0.12593651995228416,-0.19272330008461314,0.3958007290756323,0.018703440352268744,0.15311782099572144,-0.2661018337240494,-0.1390812760251191,-0.6475988059104609,-0.21597622875773292,-0.03960012961645069,-0.15373335228051885,-0.10242800098232888,-0.07295506570990822,-0.24891647240321307,-0.09985312150753742,-0.6689128711782225,-0.6610822749587474,-0.030310401325680057,-0.18561090583951764,-0.5471453319407196,0.006828307906890294,-0.12448808639795407,0.03862600212819977,0.3056300014390425,-0.23778799443669976,-0.3227967968513061,-0.1365926046184694,-0.6623780488726714,-0.3858783936703565,-0.6155855772285588,-0.27732279082912564,0.22225994194074344,-0.02869149102012056,-0.011839913786063925,-0.38638346402637974,-0.12712135495275156,-0.6096526394363435,-0.029813525259647755,-0.4663942352264114,0.1513512009406976,0.015347775856164099,-0.2788760238702567,-0.4829872463467372,-0.15175854788674414,-0.5381523294062034,-0.4137890279613045,-0.514780652483522,0.07629597344247194,-0.28228013037156335,0.30451011619413054,0.07641181513325006,-0.49117986461056834,0.13023723924983469,0.24767926277638677,-0.8604420598138454,-0.6406207217721317,-0.30854038511619614,-0.13698128781779753,-0.3747858877274408,0.009603437178103906,0.2741468852409088,0.03532645084284147,-0.34336189254293703,-0.13017600852268174,-0.3308209747524737,0.10597831298877351,0.2738208252624123,0.05925155058089012,-0.44529766251332187,-0.32712413943786706,0.311864128131275,0.4007185604308028,-0.7477082689217117,-0.04904458027237062,-0.04503648669174432,-0.07856379066478446,0.46224635899537925,0.156844300110533,-0.4040951094266056,-0.8456894927660822,0.13283556773371785,0.34535082142964724,-0.3873400555184922,-0.16462025226890753,-0.5187187482292025,0.25132991273169003,0.027589729000549252,0.5285814229155756,0.31128238144883497,0.4274027911647671,0.3969369919924576,0.34765077144163253,-0.44966913965359867,0.05660451421620944,-0.44975560521999214,0.48353026461306237,0.12717659732864697,0.5855141592043223,0.3220819293860552,0.7679313220014934,0.5301087012906336,0.027198701317601225,-0.18370366169927485,0.3199824270844287,0.2904084039858525,0.2966758945083851,0.6629069665596865,0.45734577988695607,0.3012319917448318,0.9265028890776221,0.5784953791501205,0.5112856359938104,-0.47000148243295437,0.17629844878148718,0.4202337381688566,0.7293756124755272,0.3982895101855937,0.7379026393948057,0.5024956408180277,0.7375439931456219,-0.01488230518383313,-0.5497304144043563,1.3049957624243986,-0.3105751322708224,-0.27674265238295415,-0.173354802586555,-0.6226149032637901,-0.07072652346171451,-0.02516476065521775,-0.15563396057075693,-0.11908847482643643,-0.6086563758518277,-0.3176179807168646,-0.340935349411932,-0.1333504250222637,0.04022245845065434,-0.5332088658972707,-0.22248217349307164,-0.015165162451267042,-0.25438001535568816,-0.5284960279066618,-0.80355560536663,-0.08522800689056456,-0.1736460783362195,-0.4033038501582721,-0.24503158635095235,0.04789527580164025,0.0513680399547995,-0.2547370263303619,-0.2636739818225206,-0.15281223740566158,-0.3792928080587065,-0.21996169292837986,-0.3734244608966334,-0.20792437558553956,-0.25718323652119685,-0.08558733527998409,-0.11382864824498286,-0.11464752253879928,-0.7701486370498403,-0.32719582754451676,-0.6141734327777606,-0.47735182896460127,0.4048491757007126,-1.079728927832209,0.11569728878013627,-0.06316926434086219,-0.1359487861617834,-0.5509143679095405,0.18764889603634005,-0.30690072650466294,-0.08387398982405016,-0.7492799138166824,-0.34123961918478957,-0.8510364454467221,0.22981802729390224,0.09423734027926668,-0.315341769528139,-0.03204713093433078,-0.11877865374889263,0.2561642130630885,0.43437168580297475,-0.01612812670166238,0.24373557535543447,-0.8291200602326003,0.2844818874392039,-0.06388776442089601,0.3548031621276249,0.7297180031080314,0.059781907745855074,-0.11684603838138566,0.24284419082793193,-0.4211079740575162,0.24740854899881676,-0.19519863067898546,0.274170448318316,-0.22754968162801775,0.47689594185305123,0.5158735974355946,-0.11958872688274125,-0.2266049487720732,0.4032058218851359,-0.47327809296897444,0.01852517412843021,-0.6054912221869085,0.30413807843055185,-0.21877312389890907,0.10984025641655062,-0.2847461730096156,0.1256555939655225,0.04770248354942374,0.3081793772775468,-0.04168332441154896,-0.31655948246857707,-0.2068031855163333,0.0895309826420559,-0.18403493167141177,-0.018591747002641972,-0.523296490515333,-0.3688667277542401,-0.36891688049783844,-0.10844010125871228,-0.04954323016448681,-0.28465210284275605,-0.14129575977778153,0.14729521891902644,-0.7968848219670863,-0.19051336769462807,0.33911191438120303,0.059053897115781365,-0.18998117723059937,-0.5114864643369107,-0.48844634218551936,-0.1594351209137132,-0.351590809376674,0.1665342376725843,-0.3339480725570518,-0.12172593037988554,0.3607604783190261,0.07072827630962766,0.08127567558278803,-0.12902046721267427,0.15117850159909213,-0.16578120740872931,-0.7578280759124177,0.039290745623991166,-0.4700710375451375,-0.5827780374186634,-0.10457937155237225,0.052008424932721606,-0.09270594657575319,-0.293668072854402,-0.24432228068070153,0.26515756658692363,-0.14826058751073518,-0.1895231078815378,0.03160567728952838,-0.6589188542335869,0.0371348785685179,-0.23582099341846832,0.004040525679088706,-0.41832167356729155,-0.1413854497738619,-0.1202292896396522,-0.44533504589397116,-0.5128773651316478,-0.3486657088717965,-0.06211005636335182,-0.3420592848914605,0.2838278444321127,-0.27827082317415697,-0.07609882988400629,-0.08390021352160534,-0.14938145067179873,-0.45878194150863855,-0.41694316139818344,-0.1476758260819593,0.0025511945421176647,-0.18145177202815807,0.07458462940646615,0.04066549029864725,0.07367379581331994,-0.12450594458908015,0.5927934832419911,0.3013477781763141,0.22873612480844072,0.0035211957503609895,-0.22037615200704727,0.23855598808846362,-0.26206194180072623,-0.23408077020447554,-0.2039040685561964,-0.20041428455860957,-0.26414780843915847,-0.48426376327503157,-0.11240139823448886,-0.23237727385007503,-0.477080052642165,-0.3160093363932797,0.37430012123239664,0.7336007174004263,0.16360071411002128,-0.26852700173327554,-0.14949336475675104,-0.2952700170142759,-0.103947992920323,-0.04977447515661308,-0.4266085080910644,-0.4768036907325985,0.14750741688726335,0.3209009950177097,-0.3301731087500839,0.1552297762660733,0.14607755736744568,0.05245737893453752,-0.7047488329119819,-0.17927905604126318,-0.7032657978353936,-0.41569677434764235,0.039463522709549066,0.48723943162852257,-0.07334075918191203,0.15447765987361187,0.023814123733900402,-0.313748632716763,-0.09728817680739242,-0.352692017677121,-0.2655409074203318,-0.34275894722290706,-0.3282790676376421,0.1981839666986937,1.3216022117761768,-0.8444605405513079,-0.5390918789737251,-0.3561925763370463,0.08580277759654667,-0.3155517044620189,-0.19334317566329187,0.19538570036387942,0.24755024248498192,-0.2825609149361138,-0.14900899583687244,-0.1587427794315524,-0.18609709473553263,-0.19142650084792492,0.013548365643368868,-0.39659178182873756,-0.16005246651417385,-0.1473529034720623,0.08839869929997304,0.015051841771195883,-0.431464342806429,-0.35467546490690877,-0.07832841195189046,-0.22237275580228139,-0.19469858868020257,-0.8833388182342388,0.013077189640535409,-0.2545586706285904,-0.1488398120707283,-0.16229941477924614,-0.8112932986734482,-0.21254203342186206,0.12140982293160962,0.07817434994250755,-0.6367313644396437,-0.6059083332553853,-0.026933343792923312,-0.3009722727119792,-0.07062197830976326,-0.4915218154750797,-0.5358646123070531,-0.03156572373081755,0.41588865087577825,-0.44389811054584544,-0.31756015713425007,0.10851989408798561,-0.8555143712858199,-0.4277152085580718,0.23877381226446184,0.15431796021126296,0.04543743353022662,-0.25095892261465486,-0.5542117392898659,-0.7008291211674278,0.1080267489270229,0.1660731005031011,-0.4436968491253318,-0.2168280709485888,0.32411332609674476,-0.02879086609304762,-0.10285429162581655,0.27437083390058187,-0.49813524676255544,-0.6738684181867987,-0.2856553110986065,-0.4729148742645825,-0.5551187762460789,-0.07629949202401,-0.32708613165905215,0.07967281278476279,0.19870929057323247,0.5008747383649106,-0.3511586398980358,-0.6889837668514883,0.26612678881349966,-0.12100301295735634,0.06651274167030499,-0.4301626961793589,0.06948573333897,0.21632567406041178,0.17845702747878214,0.05850806459665988,-0.30215262993974296,-0.3427265897098173,0.4305862372350995,-0.3537626758016891,0.1383971949642135,0.07439559879372526,-0.1482535640997245,0.07195014219888825,-0.03432100527218639,0.025492709305654494,-0.15705356791300065,-0.04510604654913248,0.2208353734226948,-0.25436422104470496,-0.03438075681338843,-0.18172230530569045,-0.10463151612614177,-0.1280252736453107,0.004068194769819661,-0.00487683053822598,0.051140735989963035,0.13113592690062836,-0.17823151509595048,-0.18077277766299304,-0.11712407190968373,0.2957637945225344,-0.2258209560764996,-0.2266693033928254,-0.18018171495858026,-0.3200219418697667,-0.024633650817518338,-0.11244155262059582,-0.14414698298300208,-0.018053467451140975,-0.424569498130043,-0.4493910303851329,0.1285950906011309,0.02618309984945781,-0.256199249613572,0.13184141309699784,-0.006676072490171437,0.16083165536853208,0.10140047944025997,0.121014848292134,-0.031045258879710616,0.18268931535999006,0.5327882095996526,0.4584715146168621,-0.4526622486714323,-0.8903698947893579,0.11122545580505165,-0.31529142713299013,0.17649563505828908,0.08113712097428932,0.3271913588080619,-0.34636318866261256,0.6788145541084237,0.40565886700538645,-0.41265679704627506,-0.4752810459723597,-0.2978432265414867,-0.19385207543220762,-0.3667309194580236,-0.023851409721966203,0.11725674053606006,0.06121561797152049,-0.23518708428483892,-0.44903961602489384,0.21158016120932152,0.06390282284040952,-0.24463200178077754,-0.42678303835821013,-0.33459080374289424,0.6237463092404474,0.15299218179624938,-0.12039266987735693,-0.38620388745047585,-0.1286847221262693,-0.2746824660753022,0.050340872812411244,-0.07823820376303865,-0.5898642479271066,0.008700926150186123,0.6788793903569404,-0.01594280486737065,-0.24611835990018982,-0.8347098383827841,0.33033738110899374,0.21563168947929287,-0.2636341897217149,-0.3117352836856539,-0.016369858028773162,0.08679855358614005,-0.26118189840652706,-0.16407895380763335,-0.09655314154249481,0.01692978295069741,-0.09396553621167494,0.038660993015562056,-0.10856905649390435,-0.39782305284837755,-0.0003293290986888159,0.287728451300623,-0.11667947098109901,-0.0894900516417466,0.10833517900168536,-0.006326938088003783,-0.4624740347382321,0.16366534933023758,0.018524362750274793,-0.24829736917450224,-0.21021388184655662,-0.09691675312739093,-0.4173215138987547,-0.2823853764039909,-0.005025931484810687,-0.3156681249532784,-0.09339581990745031,-0.2110833497344003,0.2548219393234388,0.4710679939894511,-0.17067584577839306,-0.10670157474461824,-0.231674120281987,0.2456531083520788,-0.17335491651356405,0.03717450959129865,-0.38657008626890815,-0.030372961162657485,-0.2948695719140534,0.016919336295016477,0.18660235643097411,1.0660540495741881,0.31849666487557443,0.38984001258861967,0.7532409542529678,0.10792394324179228,-0.1531337676978859,-0.416697209040702,0.2300891627424967,0.03488354057158883,0.33891009083911494,1.0492947889992534,0.39424515642612884,-0.18014887236839824,0.06214233231309692,-0.17179749572729913,-0.2150900205233025,-0.8873170908660968,-0.24843009577725775,-0.20034925551985586,0.1480787468813496,0.7009130437535768,-0.13562540202241402,-0.5300288724491357,-0.4869763930448948,-0.1047217554637073,0.0005636713320116946,0.24921098905666483,0.27511320045447774,-0.0017026161021142668,-0.050742442345037754,0.3967204096934807,-0.2585919107605565,-0.5892864155108108,-0.126132144390193,0.14006642921463297,0.4451387752445202,0.04041804534362523,0.2403115685383062,0.926328735441042,-0.8229164167814965,-0.8345224487285048,-0.4307402786129208,0.42361477574193707,0.4206342549516111,0.08340521087489133,-0.16647589753501665,-0.09242895693583536,-0.2396902641897984,-0.489761341076183,-0.9809624740890325,-0.6437965965282139,-0.4785043445964532,-0.3606458694905257,-0.22600162807423074,0.18994831491260433,0.23801619675215063,-0.1866722798140632,-0.22728749272677526,-0.25298630627339974,-0.9453575252607369,0.3864149601300764,-0.013725612120580618,-0.0883457134524646,-0.27614418305050065,0.056149927580705306,-0.41433196594030375,0.273798566367122,0.4370572919415366,-0.1205681995498004,-0.31360643525505877,-0.2052757638336536,0.1868030601359757,-0.43284436982409663,-0.24623888106513409,0.05075340302297588,-0.27009667893363826,0.07328862314337631,0.3466847397186068,0.30070635741869206,-0.384397738230971,-0.7103740297199712,0.1015957067089296,0.2592522334948498,-0.0506446602539189,-1.0467263266749571,-0.14364306092287238,-0.24620774702812254,-0.15071314363252514,-0.3216523600006676,-0.1481670394066282,-0.13118199246862447,-0.5148344746320787,0.1159050958791801,0.10557112686804923,-0.18152249945108478,-0.6077145205669031,-0.2657813799084196,-0.22044673339907206,-0.2410004744137114,0.14234512852959477,-0.4933932346987734,-0.6195627756520107,-0.2750437538618841,-0.060008724074654796,-0.5019593300239908,0.13703149199210207,-0.0856938505929852,0.36371744517933424,-0.040292882714652783,0.06890875771060807,0.16506549916189592,-0.17144916151568984,0.18560694457944643,-0.14407151211174865,0.17139820136367143,-0.0957214757197906,-0.10835805006263,-0.265665789932119,-0.02219628715570475,-0.44321648640282435,0.05305651334796415,-0.050926921602127945,0.061740968167173185,-0.5191896905183269,0.319780908442924,-0.5430067283644544,-0.11418200627970645,-0.420513342812633,0.18193609859792062,-0.08284969718741127,0.06365000547101357,0.7862976355594532,-0.49584309145900357,-0.14606838391232602,0.1845606419168805,-0.11800928653591111,0.08564628245776651,-0.23081615617613913,-0.27087962935099175,-0.30158325137685155,0.15257653862094445,0.09970852386369213,-0.43743511247015643,-0.006581925697133791,0.2564985234828719,-0.38980000887874044,-0.1643197842733301,-0.9239328114416953,-0.14159299130938666,-0.8717811007404762,0.7637669443707947,0.6486294731023077,-0.37375716161993516,-0.4804070363991782,0.1804417800915941,-0.4022040177170394,-0.2927699355357872,-0.5940317495417163,-0.3830290491979818,-0.19931153001863705,0.5991905132083852,0.5327648243734338,-0.43687618036536724,0.19442662166686112,-0.2408273702347548,0.45336245867487895,-0.33670149781875736,0.2511498488469418,0.7149476894190153,1.4397538358111157,-0.1733111022723519,0.05143776071216953,0.30966130043522416,0.4798126248866177,0.10127673119709786,0.14527257567578206,-0.3354498121911368,0.8348278647253781,0.6962429023674708,1.3105433137511593,0.1994406613370399,0.3313843036531499,0.38219312863578003,0.5562591325875259,0.43235434972682585,0.10732987828256967,-0.3854107317259599,-0.11982106698982466,0.3817193970878757,0.9461149799361723,-0.07826767365653264,0.20894348360059864,-0.31546842736156844,0.3947869514063897,-0.5174352012900769,-0.37781194700266635,-0.13766556459917403,0.04256655010111534,0.19908321625637798,0.9614861292912421,-0.256261938710954,0.054862387649273814,-0.6017362533514544,0.311937529817017,-0.21607517694979597,-0.6790322195235968,1.4210777388266427,-1.618596792664243,0.24118241929371112,-0.01854252321072976,-0.6915288055043548,-0.2697559824725034,-0.18766285450827283,-0.1044800522568137,-0.04134064129497512,-0.2790286382842057,-0.18787094730323065,-0.15715826836681857,-0.2846353483536383,-0.3001592274740458,-0.6898314686228666,-0.39853126965326996,-0.16965393541749146,-0.2537305004419539,0.06357896367095252,0.24100222316779757,0.00015118739649540248,-0.264691054608561,-0.17844415658410767,0.06161423160145109,-0.36427916925431025,-0.002372285432897337,-0.06537800114522926,0.3036824468837651,0.019965014526528633,-0.08916400425195273,-0.44906958361581567,-0.19388001796444645,0.08052857338491685,-0.2153324160793189,-0.3756464697177508,-0.09755132235368108,-0.07207273711246599,-0.2924823114291107,-0.003850505105387372,-0.04343909514018588,0.023481272652195486,-0.5897027224291662,0.9279550300449481,-0.27497746847109844,-0.2349706022866754,-0.1568238882377857,-0.28340626274505015,-0.40342630966033133,-0.35398763096710073,-0.006600768768133752,-0.16191586987151063,0.007794992954263113,0.11846428099061385,-0.014863761476597997,-0.045238815902883395,-0.15438404369971576,-0.44659247640570454,-0.23124516033451412,-0.23376382219970926,-0.37302155244632357,0.12574748633492105,-0.04983891188321376,-0.044220724792719025,0.024420675191179127,-0.09738369153479261,-0.37351131508986546,-0.2544286965540846,-0.2164596738107038,-0.05572749233532152,0.09321357780842957,-0.1454053058013474,-0.22994280438999168,-0.1295515001541994,-0.2060469593433299,0.2873202483860994,-0.08868205237084481,0.1688436888134426,0.0777108505047241,-0.371773185035481,-0.22552266660233367,0.05618673978881728,-0.11852819882854794,-0.19484089007974867,-0.538882136930582,-0.19744275038484316,-0.4758893470575641,0.1505837950930889,0.16139647991482262,0.14315543584915416,0.1455645755859251,-0.27145812302069294,0.1324270007444073,-0.4127581243141254,0.18183853400089625,-0.48632741241810373,-0.1549291876897979,-0.251522431774412,-0.48602425620112394,-0.3205754330560474,-0.35813878592289766,-0.2789147238761024,0.14066324616659098,-0.1112644051165431,-0.7513837323644703,-0.2961735210332451,-0.14055977630914546,0.10230786825784226,0.15003074981075873,-0.20804534477015257,-0.266432671070676,0.008933086000669476,-0.21180758282023526,0.06440613144182586,0.17245441555648985,-0.18199757462814997,-0.5699951228191333,0.09870365920179285,0.10059601212039516,-0.3580143740811929,-0.15530003296056089,-0.11178715513948098,0.15347156132502865,-0.18877065666814094,-0.15261331622751417,-0.6033459926856771,-0.7586485410156698,-0.9164987112639723,-0.01248702930329515,-0.04671743642485795,-0.2763800497779787,0.010085857996193964,0.03763612281989937,-0.26688137856379723,-0.11838560895961815,-0.06731846202456766,0.04850102332862662,-0.07113773041272453,0.17165948262292433,-0.18633700501030087,0.07106783699197329,-0.16081757448446196,-0.29262720864392416,0.022432012086134472,-0.04278404465410021,0.12256776494991452,0.41769698786377724,0.0008896791193822578,0.14181010878545655,0.014944647822968704,0.41161400218723343,-0.5761798393185139,-0.7521034461994814,-0.0845449395068426,0.09376862648704859,-0.8650701430009309,-0.38728123848144275,-0.30055545998718086,0.011023237982615109,0.1557504314269648,-0.19277990645029364,-0.32900488477702305,-0.6718100368911467,-0.38881526554417234,-0.46684845336250214,-0.3911165261836774,-0.4422325729068582,-0.4094693041645423,0.19555190027427888,-0.6513593861332767,-0.3962923473132066,-0.04392840854894017,-0.027022489653577755,-0.19409735159936814,-0.4112414745373758,-0.4588373558710291,-0.8310270606845176,-0.3709712781997629,-0.10286972843636306,-0.11902077192018207,-0.38364784833098753,-0.23660424204292857,-0.22090638343393937,-0.44510433882942496,-0.679865601606245,-0.36198862338539634,-0.5958027179986106,-0.4549618297938189,0.042943740552065256,-0.05527732374827217,-0.44977807009250304,-0.3512015339754512,-0.27066465456256295,-0.277035216645339,-0.0379203958959126,-0.2420360417958907,-0.5020620498430252,-0.10244004200278567,0.3827615598106826,0.5786958972301274,0.004267954280124052,-0.22954624212461613,-0.4250011850890795,0.38549314401416895,-0.4602341114687104,-0.18159060309930877,-0.21566344677913893,-0.3491112805513923,0.6613114112093298,0.4870270901265433,0.298633399744463,-1.0902918690930945,0.5955514662227273,0.8554797710030094,0.6803365506656311,-0.18226114990115613,-0.20802278635115376,0.5716207544813623,-0.38644028172058126,-0.775846457705195,0.21814572112510125,-0.004994915021939662,0.13461219546688105,0.9358230532146412,0.891757888284195,-0.6264436302587033,-0.09244465941607903,0.6269384609701418,-0.3541811794655706,-0.4035473309098307,-0.42098846781842975,-0.3167710993762683,0.15322148430968704,-0.2307386462966246,0.006032289101609224,-0.04277309931784584,-0.16090621343987668,0.626946457363127,-0.10559318554561964,-0.062429439305621996,0.8515571651907998,0.00042267014167541434,0.09383258033549903,-0.04107932984749842,-0.4411030012812705,-0.3505423167326179,0.042091305983754594,-0.23414584888262763,-0.3907118432169021,0.3383339103228358,0.8079959893717101,0.37033895574269343,-0.07344821927492591,-1.2720195684350626,0.7365882812712683,0.1908220626779546,0.007994913577969168,0.512030091224472,0.7692398914866486,-0.17021174051411192,0.5365261644196948,0.6426700668613244,0.031009618183871334,-0.0564666959941296,0.028688568937445792,0.3420394796421113,0.25571230887267193,0.9069691524849993,0.9522334009608435,0.10095088899621613,0.5172233389356857,0.7889024218214845,0.33158975972312443,0.24261246423572277,0.046568617658316845,0.05559864502340975,0.5164620148902541,0.46671156159902705,0.18973278885767397,0.2837019554165236,0.600370130531412,0.22067593474853806,-0.39678227586351517,-0.7353484598583508,0.0020852994511723847,-0.15785527232807725,0.5049005888263259,0.7631432856954589,0.6709389452612486,-0.34059961726365817,0.695506420476265,0.1286474676563181,-0.7327241734707864,-0.6892073379773167,-0.3631513600880029,0.765987134940524,-0.7234677597676982,0.0859148655829924,0.2547110400747772,0.10301802542878873,0.19938078057023378,0.26752176206449535,-0.10430939607359327,-0.18389015890341645,-0.16369182465035934,-0.29748920463307266,-0.20167966959116468,-0.006492483054712482,-0.5774128995556181,0.23635667099534843,-0.07950770527814234,-0.17687869467066425,0.26631115207486494,-0.18958806887105487,0.46257862997677024,-0.6024394104989259,-0.28028207176744074,0.1306273709826891,-0.6164049284775129,-0.471992745863258,-0.6572986342583634,-0.2349950919801877,-0.4687759779255215,-0.36885801564160403,0.32188089644543844,0.030863062927663384,-0.6155270612189448,-0.12464088242847528,0.04139244108699786,0.1282782710729357,-0.7835448245922749,-0.38898974072812975,-0.2928185392188155,-0.32911063043767913,-0.2076816868853056,-0.111947300072841,-0.5296754670929361,0.12708458585690507,-0.03268245002762435,0.09093075207093172,0.45014447142311864,-0.03282135885663832,-0.2400341302274182,0.4207822155308186,-0.12702714798294798,-0.5351155629585234,-0.5664809694435321,-0.3670034813924288,-0.5498400266614242,-0.13140403414986246,-0.10023411524102584,-0.13011643311971804,-0.030223880503890552,-0.027167168044800235,0.1585179066907734,-0.007293829874286241,-0.003533709011334381,-0.223954344811076,-0.355420589213669,-0.013344701850176032,0.2037599623114355,-0.1284088960250542,-0.190606722020454,-0.21723746080151343,-0.5007783297415288,-0.3986305178230609,0.2900297158366723,-0.3936707897581631,-0.07897312228359872,-0.02617294155795207,-0.04145388962136599,-0.3313512446395699,-0.14288080144255488,0.14382044825957882,-0.47932974873146145,-0.5981032448306499,-0.06293144735967467,-0.09724402735784515,-0.49101180723532895,-0.22711110667669623,-0.17127049755203347,-0.18450785288784818,-0.3564386917138185,0.027290903055033216,-0.1909170250150578,0.5761393078408111,0.06993993330104017,-0.4648155435103129,-0.04666404168162618,-0.7380112791412734,0.32646276004332814,-0.04094208959243734,-0.013078352702674368,-0.7092146422133431,0.019768221255009752,0.20334710214278578,-0.13497091030676717,-0.5413735625950151,-0.49252301300893647,-0.46326046253345443,0.353904715676336,0.05690511062062044,0.09003481066471178,-0.06326065114713657,0.10818264065239155,-0.4824423031987952,-0.6107576212195464,-0.5250317606369623,-0.383105052262342,-0.653901707273289,0.38906280875182264,-0.36804756149016143,0.2827647739503497,0.8098306758461696,-0.0046930955127968575,-0.08467654850224976,-0.4952311970799145,-0.39860206000034437,-0.3656415800702082,-0.9102579007414119,0.3589145037715186,0.27272637333610056,0.16166245422669154],"b":[-0.665235819012204,-0.34901173139861735,-0.05435798025208849,-0.2344464710115475,-0.5926764247893386,0.10346876787786156,-0.33931142207908194,-0.18536447240535756,-0.5796355746650843,-0.33741788791967875,0.23391994143669562,-0.34992589113253925,0.4041030468163354,-0.5397550891410694,0.25588410173696013,-0.26213699307510513,-0.2553789333330805,0.7177205470457663,0.009187477266215318,0.04072195029896754,0.594545857833274,-0.3385126006246693,0.49260470927196354,-0.3334709200072333,0.23168376510205232,-0.054562959004512974,-0.6764939270645562,-0.2301378624461518,-0.3407768175163962,-0.4098556647859953,-0.4182315099555942,-0.1229254941174257,-0.23746078593297576,-0.48485694824343345,0.7576139479142042,0.7875381542444386,-0.2556374972670213,-0.3454451935915882,0.640105413097003,0.18164949868812869,-0.01125223041371149,-0.47995439265907364,-0.32047154203566547,0.38148464310724806,-0.43543734318689487,-0.596032244982387,-0.25232646488797084,-0.6458267813510845,-0.02393106564505748,0.3128600374479204,-0.7674264523045807,-0.4107273341372262,0.18273630608379188,0.38707700664781236,0.6479520982002022,-0.10699072551654448,-0.549490567324437,-0.984645262364433,-0.14172053392966258,-0.23655838949326002,0.5006356347925077,-0.19000300857937533,-0.43632050021185753,0.4215655477439016]},{"inSize":64,"outSize":64,"activation":"relu","W":[0.190880321285649,-0.16206480218132954,0.21016477003768377,0.35798457198309297,0.03923981906437609,-0.016252969223310168,-0.1634258358018446,0.2100761000010904,-0.2636488087650631,0.059595044393810234,0.46306060967665613,0.12098091156092702,-0.34244838332351457,0.027404525287434464,-0.40761326494573635,0.2859489407275398,-0.0707369037761569,0.5840823815541863,0.3026639201866675,0.5220917869556398,0.22077440433983075,0.16226262557228488,0.09480369271079007,-0.07433078983084133,0.8196333334398149,0.13636377774879546,0.26211300367241,0.06472743858667722,0.04208368377514273,0.3315794846881595,-0.2034361034353627,-0.47904286521860345,0.4605983134844917,-0.0006373608408026948,0.18292026186190233,-0.5148529550062481,-0.15291057621337553,-0.16360962991815356,0.14822240214790458,0.727436940058541,0.08002546998041188,0.14462784253787583,0.1712019641371529,0.6344623760979018,0.33424106101150425,0.492886073377342,-0.2342254990648381,0.12338550989454283,-0.17627840566759007,0.8566465518819794,-0.2870004499117806,0.21424831847805598,-0.12293467642743716,0.360549801699075,0.21358676944283145,0.08187605474887201,0.2436614753384338,0.4770555507513443,-0.26142658881469144,-0.14640842002485777,-0.252840366498762,0.036062115417472076,0.07063431757656037,0.3094657934061483,0.0547791531445901,0.08402419201951783,0.0516909755300135,-0.312560867622356,-0.1673012323145774,-0.009266403308738232,-0.13822476115200033,-0.08094310038249178,0.07136188775540388,-0.07821881954005959,-0.2809756271762046,-0.3311989575780139,-0.4232102032102405,-0.1578239479283614,-0.2223163176526313,0.1313868764599764,0.11757434302655434,0.11901978992822186,0.06365086169905704,-0.15897864754508573,-0.14997959222588214,-0.2118208533207256,-0.3729840820405405,-0.11685881590962865,-0.16500704558619653,0.03983657859613349,-0.10427282847428164,0.029104474642437907,-0.2939696760458922,-0.12791696537865324,-0.07788721819876064,-0.008103776087896336,-0.2664015665971615,-0.012192782704902629,-0.1558978969265783,-0.2964536737633132,-0.1541730682847177,-0.31813051436245027,-0.11722491920614445,-0.025826381102038876,-0.02157122287249833,0.12934963041122557,-0.0606288847424155,-0.047120238719233216,-0.12636594875988708,0.15450621710981216,0.04473888391991287,0.3272533132796585,-0.2516204173320046,-0.082381966780934,-0.2044110564529086,-0.33827026312810043,0.08101436833802778,0.27936525306120064,-0.13317884753210615,0.2354851861448103,-0.3329325195489751,-0.03998197617212227,-0.13070284175986183,-0.0023902018865070685,0.008095003141018848,0.2081252539987741,0.26128605375183017,0.044306536930319836,-0.01774186197956756,0.2973555535427891,-0.18763133862494183,-0.06519355265124291,-0.35313768984673755,-0.21933608601297672,-0.030077025841157384,-0.26792729406266047,-0.035317071899800545,-0.16461720248092443,-0.21957311507034474,0.03779075720439755,-0.032460222814100236,0.17709572929057013,-0.05732837664079739,-0.23495438161536206,0.07618083517990316,-0.008563966395419034,-0.00820550802702604,-0.08797763310452095,-0.21877837667001804,-0.3644432777356793,-0.2507847025622492,-0.10254085731994053,-0.4315303460321578,-0.11700915919027452,-0.40191471115777744,-0.08934030254760986,-0.12546337689043394,-0.5946672509252534,-0.3634631925917052,-0.045871157495848525,-0.2603133273977509,-0.40275473182074306,-0.005106738797390543,0.2086244979466489,0.345037158813148,0.034942437194882825,0.08813107107196007,0.09790345367426613,-0.2344795101919504,0.030747863865464204,-0.032977545181665416,-0.13931461149129887,0.19994555847066006,-0.21012250574920008,-0.014709938197793967,-0.14566974008224923,0.04145958213378067,0.27582488476286404,-0.08584045980761157,-0.042131702648632856,-0.0793652757241726,0.183099942535238,0.008921446246672484,-0.03582556185487298,-0.05822674098589332,0.004039425592968081,-0.47841427015491567,-0.297040916265427,-0.29945751647844904,-0.07769117560951992,-0.2521849352053239,-0.21104125609936633,0.18378875909492157,-0.1349959270376796,0.9895409388885511,-0.25370614399472735,-0.33259398065751816,0.8250044656385445,0.4024809785913422,0.3991286332061065,-0.10124764928749014,-0.2038975045296418,1.2326319618912438,0.21968337079437608,-0.6395188696144496,0.07321951736875092,1.5273949398664848,0.6171295511721065,0.14620406532476857,1.3942484436418079,0.19970888165877088,1.393436724042383,0.6385275477715069,0.3304825152445693,0.8963729290729299,0.09406936694219706,0.0028705177765045112,1.3170800062921526,0.7279116472648821,0.027206904652659035,-0.22098835780894502,0.06086022461941834,-0.23999570093626438,-0.22217481976715162,0.04498319166725317,0.28403677242130987,1.4322990390738821,0.5901440006780675,0.12685188248392015,-0.3341019290453567,0.3717755993784109,0.32817748439312217,-0.42552881725066444,-0.371612443116637,-0.09110745632130406,0.13935124400932056,0.95378437704504,0.6854403885836954,0.01698370608134928,0.2591811477645546,0.0035167258680445183,0.8943682967450811,0.570349857610871,0.24965346157052748,-0.47846477913551116,1.118635833247895,0.3873489310343746,0.1559194451296655,0.337358577860912,0.5808840243892088,0.08730230819447392,-0.004562803802736733,1.0412238131849931,0.2038984435346368,-0.3480046227045571,-0.17798436414591468,-0.10176184529864869,-0.052809121947097366,-0.13196007023187603,-1.0738770887688638,-0.4728261668073769,-0.4343837080728157,-0.0934300102135775,0.1695311790795791,-0.1391890163785673,-0.1342682339516853,-0.3449014576113339,0.24953830193302223,2.4659878199523138,-0.4558736741620187,0.07368541293444857,-0.12230702669168707,0.17315718992228346,-0.22326009191816287,0.49849552688710513,-0.45631766889824876,0.12907483796721733,0.14830429984467547,-0.02363842852548331,-0.060573280910976475,0.15067823114632528,-0.3236328402359067,-0.5885285839708764,-0.3057371633366485,0.8685974246718651,0.3249061842893618,0.28253504010994474,0.029463309634243103,0.05343749732235821,-0.5460557756909701,-0.21948442494172046,-0.23648199204072354,0.2784072013020741,-0.3767418506859612,0.38275855907760864,0.45204037079062653,-0.1364451314058774,-0.03130709276745081,0.22458005309098183,-0.5898686145007053,-0.07886420261955011,-0.33612170078666526,-0.18290529523117768,-0.5579476120333041,0.058773847009719736,0.054677167952589374,-0.13725528800977524,-0.06398686587820325,2.456796832793326,0.10143656469986961,0.24423008249859351,0.04669572572503522,-0.514079569135969,-0.6142638398285069,-0.22535914841176272,0.2783134040439049,-0.04073660682443115,-0.06755772354179933,0.18075000697829935,0.6348465426367241,-0.1799685650665501,-0.2486168041607082,0.21455444705313975,-0.18359084073339638,0.04674682748492666,0.08271121144334934,0.07267501131293158,-0.18969189931561703,0.4655836085555983,-0.11194839330347613,-0.23431387398080908,-0.07019562043396928,-0.33536053363506113,-0.20844519281417748,-0.06657438433638384,0.08520257625573294,0.0025518835035016557,0.052642796331814797,-0.1614985437288122,-0.15819602335666508,-0.03120305976414806,0.07865231399902295,-0.1886878680921536,0.09142063954013627,-0.07884795793717704,-0.15486234301620178,0.12026425369790865,0.40882167556576965,-0.20871985342715754,-0.016952820974735792,0.08021400629560878,-0.23164955067654822,0.3246442372329205,0.07234429070377753,-0.11322515188716142,-0.2741879970708291,-0.30811804150009314,0.12518867510775347,-0.321967817684933,-0.2208332115051143,0.10393285059897008,0.33425789677060325,-0.22717588543012948,0.18784913401846165,-0.17466364941030835,0.22119180926208812,0.035630077930227766,-0.13513615960136102,0.46420452209747837,-0.11848768970297062,0.0769703435425234,-0.1194302981720431,0.12543634907847218,-0.06488376437544165,0.03353458297686179,0.3044862382812835,-0.06642600715141253,0.12782992963639517,-0.45445971688934167,-0.3392188918892506,-0.0805925179070054,-0.014400275100862326,-0.24522965238388844,-0.09581570714759241,0.0470073787176966,-0.30014035480626755,-0.17935408929044597,-0.26673146857864516,0.3871562898315026,0.1747367630823106,-0.22167284006415372,-0.056433566817662144,0.15144771361473464,-0.248630023186081,-0.3489695032407065,-0.04149086139757034,0.007634487966997048,-0.16844183635271964,0.1076585016083702,0.14342012511557045,-0.19083264176105316,0.15713848666537444,-0.29151272225838964,0.019236723583808592,-0.01600414461813967,0.1479784011502904,-0.012263114798257348,-0.38995808178163455,0.05283452284620605,-0.03131469542137871,0.011983666583203456,-0.18031006115417175,-0.48046778313733374,-0.02137327088290048,-0.31038636702094907,-0.21413723807079946,0.04543672025021601,-0.17917598861533224,-0.2588482485641664,-0.3623189628566719,-0.14205885616238823,-0.4327117905394763,-0.10775679941496796,0.09623039379266049,0.23950696866606758,-0.17624343798589667,-0.055434767953356355,-0.03716344188602334,0.04688510161366067,0.17484452874361517,-0.12122980266005558,0.06572873876830909,-0.010402550212465975,-0.2010960033168728,-0.05713068228428259,-0.09221759473945708,-0.029270036209967418,-0.5280935282218797,-0.37998242782299896,-0.09833679199883152,-0.17681045123761507,-0.04750865449424445,-0.36878861291983495,-0.19027663822878557,-0.30395017672927244,0.3540402400254272,0.06493438510043023,-0.2704843898656093,-0.037951518262486654,-0.225261067256589,0.07538536243225798,-0.39417795612569634,-0.10659504050110495,-0.25584483958437604,0.44406409549327364,-0.15580662125744638,-0.22309615873917515,0.14585508881772205,-0.2796574522482159,0.036325963536210246,0.0715031295124586,-0.18985519214983007,-0.16064455163120336,-0.2668791459651597,0.1931105804045029,-0.1078460132644875,-0.23985178858501185,-0.049780811969857855,0.10612078337312592,0.019807942509213167,-0.15730539850660638,-0.07696610399394864,-0.1856418205436319,-0.08995454997505477,-0.22290640701687195,-0.1929743242672439,-0.2339233248394688,-0.35207318969264983,0.03551102244477212,-0.25258510869464806,0.03173260296886332,-0.33185304763871515,0.028549609544986167,0.0742602326494105,-0.37315594593211326,0.014823223710270755,-0.04840702936418659,-0.12091989222823539,0.042471247527151756,0.284420052268493,0.14570403962201361,-0.10097729878505489,0.31226317320928054,0.43291778225003263,-0.01262773236237343,-0.23369082371205965,-0.03719852866113067,-0.19772281905977082,0.06256426936448446,-0.07090036771776748,-0.1830710292401907,-0.0860610970747994,0.07465757961727928,-0.20780979894146004,0.25004190332809917,-0.03901704387478855,-0.5432444994214448,0.08235204035991467,-0.34400944622536134,-0.4160490275828228,0.055551811310005764,0.06908228819455156,0.06158156794051155,0.1319380473043234,0.3143710371755027,0.8941947242704977,-0.17193888979131608,0.06100987993496596,0.47590054268344895,0.5780873001659637,-0.14086321492965667,0.12097200563345065,1.1989663233215189,0.6627234764914752,0.1242247683991329,0.45006529829842795,1.6691444242387967,-0.0543975061343892,-0.11237225044191457,0.3576244824060945,-0.3472334323546049,0.2711575627743496,0.8733689624028799,0.10130718630766569,0.7282032452731012,0.09145864928884015,-0.3329621748091607,0.9516139474578056,0.20753998895933903,-0.20745127694352547,0.07568957022969594,0.1613016457140877,0.2773865109881226,0.013055742744877577,0.3904985743715733,-0.09787668292538805,0.5076517228294486,0.07155963147076497,0.14692324550269362,-0.7580371971054091,0.5686615607241645,0.34860076541277296,0.07521235482482681,-0.3257846594709539,0.29870882268659327,0.17654589102409457,0.5940185557053279,0.3230745863560773,0.21261529176126628,-0.31656845304829523,0.010695437923316722,0.5254836702654089,0.20741234758977672,0.2795594554955784,-0.16684865334412297,0.8185453306739829,-0.018307233974931718,0.0762618842788188,0.39478315917837165,-0.13688896738594683,0.7425671703861614,-0.5106959696629184,0.30815696061843995,0.5387083071675953,0.18995486477872525,-0.5994511426363606,0.07604348368341761,0.2677679407348778,-0.10533470167678438,-0.01293140784218729,-0.02991193222974762,-0.266295031561408,-0.024160320552106058,0.016849770088581368,0.07649750595187713,0.1846043373793169,0.09607788243206734,0.2321856418576767,0.3291488445192977,-0.05678154411191721,0.010334595268215787,-0.14036989786729803,0.2821967027604628,-0.16168342006708378,0.34013051593685595,-0.28246133013993385,-0.31402386262299536,-0.2187292191358077,-0.14682684918214645,0.020696653487700816,-0.010564352466011194,-0.0322467149353204,-0.17126955574673142,-0.02120686806685138,-0.08684350835138431,-0.13049002114012218,0.012388288077084945,0.039312782292131934,0.26406346019207283,-0.1671187420959373,-0.15781002231602703,-0.32812485924849527,-0.10887373853076197,-0.22012003568098198,0.011837689251551103,-0.3183955954114854,-0.4700311555388426,0.15543797474956772,-0.011672881249788318,-0.38420821960849433,0.010428073347018518,-0.021613120600153874,-0.17307815937295248,-0.28281925670645053,0.3987927515728872,-0.16179925560438388,-0.06754968630427227,-0.14021582802114804,0.18359504629748968,-0.2966541898385449,-0.31735568547445697,-0.25890051416082055,0.3893009991884976,0.14348855765805046,-0.6103775237246849,-0.2772186355468023,-0.2214802781548271,0.3694763491983722,0.2317910397992628,-0.02267746429578533,-0.125643716670585,-0.1254971543296044,0.19557793740011742,0.26290519339179264,-0.029819168710340974,0.0606056814103923,-0.2712152191391389,-0.026878970785834736,-0.15644132517139475,0.015693684731775195,-0.09522251230396214,0.08183861878908144,0.23065195511984002,-0.3435225644369656,-0.14804796424856914,-0.010701228180604348,-0.2256914252882675,0.033606628417453814,0.0021701130799068745,-0.18026421006989288,-0.13671813235958136,0.0026688249024037496,-0.35568238903047206,-0.3628549276037477,0.009966303584412872,-0.307998197794548,0.03501909372412496,-0.38468826922546784,-0.04187366921288309,-0.02883793839684713,-0.4013727806888064,-0.23794440512230694,-0.27946713283616886,-0.42827196173597754,-0.012889554451941166,-0.2581071719838358,-0.21107562211887526,-0.21499832453931866,-0.443797496061317,-0.01207091164026355,-0.04215843684008446,-0.3262966123357982,0.15417513875832078,-0.27255824034579523,-0.03512959226070682,-0.1238818583156268,-0.13151858924234264,-0.4403181206448704,-0.12484500032310684,-0.24153573072435044,-0.01105728999602334,-0.08397717531133204,-0.22808230216956807,-0.12582846995787383,-0.20514258680025574,-0.15879658167318697,-0.11310877324038382,-0.09568836186095105,-0.2195261345150079,0.03558948231526601,0.013633902129671157,0.2764727902387815,0.049787491175550126,-0.07322078861241423,0.1208915193151473,-0.11643652244844441,-0.03179186619585986,-0.010677726723623989,-0.18034047412244372,-0.009261957500663977,0.2622313374081672,-0.13595345804012107,-0.4670847228441802,-0.1935141952479134,-0.21895959371403495,-0.20803313215553068,-0.048142141056398184,-0.349893760732067,-0.16327416583213286,-0.09619501983173391,-0.13543291846746716,0.052738633554036816,0.1325777390330813,-0.10490237165686017,0.03266481822833044,0.1809151160223769,-0.3086567618698522,0.11949437367363971,-0.012299379487342698,-0.10935980338785496,-0.21560930889405175,-0.05661941035958248,-0.255011583597361,-0.3011636293429643,0.022658274610826177,0.35325283235214383,0.05260525166522153,0.06679599673832615,0.0814879108739378,0.006346753670733446,0.30766597246319977,-0.22423399148897138,-0.014151359422453687,-0.08342832047144591,-0.20988498031374564,0.3979924905660307,-0.22642350519141136,-0.27913727797525995,-0.12719035917252686,-0.07791018899982353,-0.05608684545938769,-0.03527210905874942,-0.0462795956158686,-0.13442915514640003,-0.18378131224831903,-0.009406214643275542,0.24394322387493003,0.1359452446043849,-0.5667912723652762,0.21571063912857474,-0.08443380754958667,-0.45130363717637756,-0.0024670614258814937,-0.21444251823429977,0.22059459326675973,0.05123644298626668,-0.16272224274819555,-0.058834577043982504,-0.18698153437163798,-0.243838481667696,-0.23415400408241308,0.1277016500698922,-0.19671278673175802,0.1626688280664649,0.03313023898287902,-0.06956928849186975,-0.22147322246409637,0.0773441862564159,-0.25967916064534713,-0.17908897258055936,-0.04167959602125666,-0.03620137692442354,-0.1173700300373581,0.0879589420693892,0.00983494572018955,-0.03053439951542643,-0.0442931356995831,-0.28474759591954435,-0.03936059254296707,-0.0348494959875364,-0.30762982557915897,-0.1060458766580701,-0.40942468655380665,-0.19626055321396682,-0.20214193658016602,0.12376838099944452,0.12418403396409847,0.018125731092637654,0.006872588959654326,0.054449890102105866,-0.3709436477970943,-0.045069721597902596,-0.3936952459661095,-0.3125028549116788,-0.2604268346874904,0.11009967752201386,-0.28422964940586776,0.21221207939071163,-0.3447322103641153,-0.039671655406672605,0.15759936459683313,-0.0760960386304709,-0.4012326250827345,-0.07244064759398164,-0.06129764819841679,-0.09805460679721129,-0.38984447015249235,0.06920878507480054,-0.39752179541040333,0.0011242777686961483,-0.15063025054760998,0.11351831804754291,0.09179484323620968,0.0939540389738825,0.036573666664743314,-0.25054167561563145,-0.35925319078121015,0.03634770917311879,0.13184585248860592,-0.3837755027158377,-0.1361118586151253,0.160449468352902,-0.07107942413620046,-0.022834694159928434,-0.4274467985911632,-0.2954329439245844,-0.04165796639708273,-0.26682026894340866,0.4503627618562016,0.05338438264717818,-0.0764094327029992,0.002099643732227194,-0.13667568949285933,0.22225011358720131,0.050111398736673786,0.12231274453989399,-0.19976103646751922,-0.23952083371763022,-0.15354152753524666,-0.39618348321531544,0.20514400080890324,-0.33093596153567456,-0.2701236480937411,0.04442053524866555,-0.08301069102693791,0.13208903743384212,-0.23209792791610107,-0.1596742810450031,-0.35482956167614266,0.1805499995195908,-0.06271595933044168,-0.2914327756105076,0.3022603267275644,-0.008001723710822303,-0.36182734701184344,-0.3105936284914232,0.08132450436727831,-0.1998926107360773,0.00420083210687228,-0.14429910296745196,-0.0549900382576557,-0.09364987443009844,0.013077702544568848,0.15392398553692108,0.02349923024887665,0.4498643428190485,0.017852393827835565,0.2810718442403087,-0.08049224225170987,-0.08109427822230841,0.22118108520842178,-0.18018081269112815,-0.34788223492157255,0.2545726368106965,0.11222213827911832,-0.43483256377092705,0.26219192553098597,0.052167266603186685,-0.3061451140297734,-0.2292614894134273,-0.2683202327494623,-0.41723896873781946,0.15452000606142974,0.2881803247547676,0.03411619943338133,-0.29636236087092,-0.04012190073819254,-0.007526275031823279,-0.1692241998073415,-0.047339282268371044,0.09854514402318354,-0.5308958539428709,-0.1288315830119541,0.1090905704876405,-0.13099258147704104,-0.16902537690267153,-1.7348566100026406,-0.21646176089665672,0.3964953539129249,-0.26115186142663843,-0.020732675384589394,0.0035285916992128527,-0.38339965558463596,-0.4533181908041253,0.17030865566585265,-0.4836023828303055,-0.27735098600829744,-0.2775219055267459,-0.03498205403462283,0.31480191845519817,0.627648052906313,-0.37900275431087327,0.05318394515640008,-0.07941386140442594,0.04295441223445704,0.04055561201848483,0.0542742103617403,-0.11710865562868338,0.14291950026175645,-0.13635591468648048,-0.13284689850208095,-0.0857532316075897,-0.18444012726674494,-0.09954676414747501,-0.04222716225897219,-0.24067841276384033,0.03966468507241569,0.08119409896675607,0.05891396438202199,-0.376488292138974,0.08331526274220064,0.19818433375628358,-0.1414032285868097,-0.5152345245423239,0.2701608853075157,0.27888616672103306,-0.2996140951668665,-0.2773056763938989,0.43195476285380746,-0.21022784825079702,-0.3865379846991435,0.2534847880667031,-0.2013911500928605,-0.09584205843482461,0.026899543033052333,0.10606768926791312,0.13845132908655983,0.24632711671147353,-0.30944780449069265,-0.3055069430165596,0.03662388365852994,-0.11473830161318332,-0.16011235351099912,-0.07147507048974427,-0.20660514604364333,-0.06677282904827603,-0.2382309776613999,-0.44063941222416025,-0.2643297444271781,-0.08046347664293058,-0.024577893622013784,0.12075470531568995,-0.05795707772577091,-0.008338542924688627,-0.047723296353684726,-0.09963442020946738,0.06545711050145665,0.40862217080666524,-0.1182419825650864,0.07156960484228847,-0.06463656267708628,-0.2047429770923795,0.15448135542527672,0.17821785880786173,-0.36954437872379653,-0.08720482917436512,-0.1530452925962839,-0.3125040617528108,0.08350245154940059,-0.3759228135257414,-0.2055477361931473,-0.15574838986395492,-0.3700688722780089,-0.1797518517258089,-0.3217966420298056,-0.07446901470757121,0.15421550820390864,-0.0059551642830856805,-0.30256051713115456,-0.10437794885352117,-0.16226393964283645,-0.00251946326803623,0.2516294855509516,0.041043890305754185,0.400809710386033,-0.36114741234938447,0.19527313280092098,0.001680523330981925,0.07797319971697253,-0.08222088078033993,0.04362039410240692,0.23683401177019048,-0.2182916824030826,0.06005928377812844,-0.25332809617096697,-0.2635107440796602,-0.18847093984611832,0.06601731189901319,-0.49411209015641555,-0.0968800725854838,-0.16840730103295665,-0.21085705192261783,0.05241789544308801,-0.19693089602884312,-0.3268933122153197,-0.10940117272157089,-0.09608793271409473,-0.050499828020228114,-0.2420271523443458,0.01215509425929762,-0.0985745577426184,-0.08142505614084748,-0.16328571896884583,0.037296895350509326,-0.4519845156434349,0.053800046769353814,-0.19183869627222958,-0.4709918157744157,-0.19887645256618292,-0.15019074768279814,-0.23709632911791426,-0.24278053641634648,0.026878696496252456,0.15281059112021858,-0.0471596174323015,-0.24091929456713676,-0.03423502627274925,-0.17240106017390855,-0.06415962133422501,-0.05219660063282679,-0.19308625806946553,0.006185893921325295,-0.06944395046597139,-0.25606706284435254,0.05543020315357842,-0.3790071783030624,-0.16653638563123196,0.055503306347177726,0.016074929574775566,0.05367511349586319,-0.05634399880509132,-0.30068904002242713,-0.1689848182895077,0.1380460675468717,0.029930798996944456,0.10190321237107841,-0.2668142310530202,-0.3235575229944788,0.04716326169078456,-0.36858467752952934,0.07635112559011625,-0.17747785677104796,0.0005700778011976811,-0.08871751919490445,-0.20106738403913482,0.015390339754761628,-0.4984693082353406,-0.02649676265127331,-0.08219550504988471,-0.11927325256351157,-0.054833945275897196,-0.20558538376971125,0.0813620567443811,0.08733545949069647,-0.05321215726419234,-0.2423829218056665,-0.03886619644964654,-0.061131784397484,0.23050146852587672,0.1621036460642279,0.021703390830900046,-0.07375031284950537,0.146825638577364,-0.5011773443448194,-0.12913459582692915,0.26173802782678535,0.0616157762043206,-0.0793733741314795,0.08305490954230516,-0.12159907454293,0.07831661723746312,-0.11571554088269903,-0.27386230211212725,-0.17566191568115452,0.13316099232867415,-0.459101065753178,-0.05499110898413785,-0.46563974127034846,-0.09671079444191667,0.1543286349738565,0.006936390734144832,-0.0017305291725058123,-0.047181539351508504,-0.22346230935360237,-0.09399498135232372,0.3127907861404637,-0.1496098693933875,-0.35906118370921586,0.21405339637185566,-0.10278082219173752,0.24497029326771916,-0.5513429198409318,0.1884890075127474,-0.1326953766792789,-0.1503990400825716,0.10166896347484394,-0.14658119162351102,-0.12426112078330051,0.14853317207945407,-0.2118686529379119,-0.18447626010381923,-0.021672668176594863,-0.2740187772890988,-0.5179723330852234,-0.07941622232086414,-0.2717317093058333,0.039996029619166346,-0.16141017453306086,-0.40868726067155164,-0.0645885555288955,0.3546193009590964,-0.020408069707438387,-0.09844302647666754,-0.33623603284022985,0.055299651070178056,0.15852477073886231,-0.06967310126600428,0.10529204840876366,-0.09122713981001537,0.48045084951320927,-0.2832870291844163,-0.18504008592059265,0.03239007389466735,0.07064579847730684,-0.08172723143425856,0.09707690182654824,0.04757959410466924,-0.18242096491499252,-0.2127514235024931,0.16555302176636744,-0.3485424552341271,0.0017973041030095475,0.026350843468382488,0.06822686019024568,0.1658544616823929,-0.45045154426857165,-0.19544537992436192,-0.060312414753913496,0.14381454742419156,-0.01976679165744026,0.1667905515540489,0.15208612815549213,-0.16907569889976778,-0.18219240028865022,-0.3461421926684621,0.02017809325351455,-0.5680096650148893,-0.3737399719288471,-0.12496011509175715,-0.24470777535930466,-0.4226595301684304,-0.2445741600007064,-0.14410960967401498,0.18578957536274635,-0.09795732346294397,-0.0726385752349624,0.06426886179246143,-0.15622351542417157,-0.05628684129869398,-0.1497983738920445,-0.07447146723765669,-0.1980116149121979,-0.14697770666420737,0.07903638444253226,0.003799063798780134,0.4103720137146897,-0.3962558626321721,0.35479459512714434,-0.2506191863692815,0.024615366809581034,-0.2083264467268963,0.15165753985974983,-0.18033692492853348,0.1505914130577923,-0.3190643441052193,-0.08353090965325212,-0.21376591328577915,0.019853855964254215,0.0030511744951290413,-0.060281126962938573,-0.3010056893161867,0.005550224544588975,-0.24781509747507685,-0.09240750463776903,0.01742545713212066,-0.20411213589199245,-0.23043774207688447,-0.04977499112590066,-0.07860540101006881,-0.5910671123209351,-0.08021565808888516,0.08216446043225988,0.3452985432620908,-0.1121336202761236,-0.16721915479539273,-0.2893294628282314,-0.17743299673763543,-0.1879439617324796,-0.017986646016619225,-0.20972893886480046,-0.38496802092241533,-0.17747830941819157,-0.06970936081489877,-0.181470375760563,-0.22784936699797445,-0.11649882800849366,-0.0792211228826502,0.08073328925692407,-0.20205114941118738,-0.10416611729886809,-0.05169914995936468,-0.08228479845787888,-0.22506368192729773,-0.2679318120472018,0.1263549287245855,-0.4315848953414287,0.018766036339437978,-0.14360351244037367,0.26887285026283714,-0.2717211868315314,0.055430911846076784,0.05828879405155819,-0.017581773935934936,0.04286366418686064,-0.06890609281614073,0.02722135680489923,0.14222267115390905,0.04765454411062645,0.13167108849915202,-0.1476837110553254,-0.24932268668723886,-0.32665968077836965,0.13244991344894647,0.04580249822232154,0.12278011146775723,-0.3670993799717609,0.23192502380405158,-0.006763531383559266,-0.1075284439867963,-0.2744373269574147,0.13880357919943548,0.12130152578164693,0.12765871942698415,-0.032104595343542805,-0.26296553615441937,0.10611313214132327,-0.043612195156067755,0.18984636237647057,0.1596884732409368,-0.020982781578889838,-0.00036566973917901563,-0.16778142838456542,-0.20825187611764343,-0.27326482033117294,0.12160906580662151,1.2927116926954172,0.23749461776981137,0.3979783794178564,0.16805852944573818,0.12488378865610417,-0.04505678636486978,-0.7784075472946066,0.825507225334279,-0.021470359661264142,0.033494982809008374,-0.38958481946761025,-0.008261987836732865,-0.42494393556045634,-0.054323382728249055,0.5593279295886315,0.5440293940799753,-0.4305821419390118,0.015701203208639342,-0.12284427377121651,-0.18160472548534987,0.2644831794244503,0.4915317969985435,-0.019761972746748045,-0.020233866456194554,-0.023487941256035823,0.10532673700512353,0.2237192104831549,-0.24902312944597968,0.10476568611690391,0.0928390051926098,0.27232309492394535,0.33175123699656706,-0.5910888851102146,-0.26283124857545753,0.7018513351964594,-0.21614276373621935,-0.044896642035090376,-0.07135145772157325,0.5796525384941679,0.49652997795693826,-0.5804547421660062,-0.31395680435871454,0.056321563354847864,0.04129732175561282,0.06650938164277544,0.18905936136597631,-0.0015434899741043327,0.6322537300636263,-0.20028614619337226,0.906249221815832,-0.04200241573403167,0.033036319336676494,0.34127135974640593,0.3206219939991291,-0.4945625821445695,-0.35388699297820775,0.12446705116151015,-0.5326619863591534,0.23675497366576367,0.3674974894753229,0.32857197484383255,0.06700510573626872,1.5797729831641991,0.03440716464445411,1.0849350566647598,-0.038909800567504746,1.6435884342103333,-0.21528538744164744,0.16654120176748263,1.2584623237426225,-0.09027683627338898,0.23125872744466125,1.1015713907119065,0.39891519393038744,-0.07972503740315731,-0.08075257778866278,0.45729089082832314,0.5410278816060078,1.2945848345314541,1.2486920286211485,-0.16461995293111373,0.8908130075376826,-0.20487003095966866,0.6238930197299057,0.4719942088704775,0.32481719198724923,0.01865724960567122,0.8050048923298593,0.12761897318141657,0.2504464306174284,0.18806559399530004,0.7439426924228728,0.6904588859637105,1.4792241314578547,1.56531819228449,0.14988269430715134,0.732113465073151,1.68486370220118,0.06650197113539255,0.30292287529529294,0.3885691543011398,-0.16234248198458487,0.04823179767740458,0.022772536162036814,-0.36005054093224975,0.0710323513958671,0.7959825447193654,0.1478457112356765,-0.07761617604579901,-0.18675206570519376,0.18623826019285825,0.6270250057796464,0.43286243282403836,0.3048724699816432,0.18124094304297952,0.04684630293799704,0.29771475125976216,0.9220571024343104,1.0402609319606275,0.10902128138079899,-0.2643242749589279,-0.14952846448194337,0.4068097472434256,-0.03780555557056637,0.03984100114744819,-0.18699491338723268,-0.14596019812865893,-0.005290670294833646,0.10782745805735719,-0.23961901918176398,0.2337104828112881,-0.023556422919182668,-0.21770390010413154,-0.24455362382937193,-0.19563995801186312,-0.005319166162032119,-0.4067945113472879,-0.16286804137916885,0.17704240662009557,-0.22144208346248231,-0.004074915574468641,0.3780327614613875,-0.18365132234161977,-0.3183694518431856,-0.04383979935530347,-0.34180603240503077,-0.00447420242521953,0.006963161555056241,0.22217604096768617,-0.31044885100230185,-0.2285206825442812,-0.32750250832913663,-0.22876671630203899,0.1506914525812012,0.07457269298936649,-0.2874518942170293,-0.17943092694675455,-0.11323002812668077,-0.2920750323366939,-0.18238823875531154,0.01098243834795559,0.23911922356206977,-0.07538832477152342,0.044906331507846564,-0.06261126199899202,-0.1551908008205158,-0.11864285757327396,-0.2371459484462615,-0.07714339920260836,0.13595415295768212,-0.4496972122274763,0.25711597413141807,0.330742103713784,-0.232478969245595,0.07216630305920656,0.1088897200130764,-0.5215186991821213,0.3708734956124857,-0.12417380100590203,-0.20192526076629277,0.3764606928644638,0.05306444215774135,-0.09142909413607447,-0.2842447716351192,-0.1638997657584452,0.021635340801615756,-0.15510607318918873,-0.0894092659972819,0.10309138700441112,-0.2286392182708211,-0.3326978244145972,-0.34642000008424373,-0.19553983667388622,0.45920007847505645,-0.377290478947337,-0.28667435221318716,0.2607109873159864,-0.203694528599249,-0.2292048979583584,-0.1738343762528116,-0.43616283365620456,-0.16872728512734506,0.07335614078215488,0.24085527241456287,-0.4930892429421253,-0.029574235926836882,-0.8956581716319514,0.7782908218198412,-0.11480258424300097,0.09879928939600263,-0.011331592139873472,0.25228593954349504,-0.5003296767920344,-0.0674920693187046,-0.012448287303337196,-0.270486134772381,-0.30086133191905584,-0.298242600021241,0.26429853808162773,-0.2896105236047242,-0.46759460091893396,-0.20684546937767867,-0.7809564891683421,-0.1830860153153762,-0.307758762915251,0.00006344574277193155,-0.009341542574783156,-0.2709423440745274,0.1100125652185979,0.09802875769828577,0.11690310495995791,0.323990618600663,-0.3981454899528286,0.012676977420288785,-0.3231759400125681,0.364405711572295,0.04666161034760184,-0.20522750416661018,0.08578302380901338,0.04567317400791551,0.08430254208865141,0.17113065685649723,-0.15547763996885164,-0.10383943521491641,-0.1019171043880108,-0.6237267523608649,-0.17570170237068466,-0.5795152379666431,0.06177414404627597,0.2554418024151518,-0.19578252572052274,0.23825719093713366,0.03854527939228348,0.6015483664025483,0.5744796460663656,0.037030710700682305,0.1042056686644785,0.4980047619011572,0.743023502922036,-0.016276743132612976,0.07520556493274884,0.8639398017907095,-0.16297556641549882,-0.3351685658496806,-0.3345410768262104,0.8611713656842004,0.3127464898727513,-0.1498068125680629,0.49554734871933076,0.8259451615073685,0.6653305594313909,0.6082753458861483,0.46260132749856664,0.990967061721066,-0.01601458005548661,-0.24812328567869615,0.6313795472033709,0.9151171100226153,-0.09830513112794059,-0.19462552622477813,0.11177674609918933,0.3676610222068471,0.052521511835940164,-0.36438161355032966,0.1575701650363732,0.7792076390940346,1.0235179637896819,0.6444550511416962,-0.24629249285215365,0.9613829688435629,0.3660783199872296,0.2357555335265964,-0.7243199789647924,0.16865493369217993,-0.5712336255363891,0.04085488210936923,0.3387808578368402,0.06835740989070571,0.46683115042261175,0.09182245056665424,0.2286708512784267,0.47544545717205083,-0.18089233866900356,-0.0717300100999152,1.0578162927718093,0.3094263646963681,0.5970696460740013,0.8065368965282496,0.36272672159852104,0.8886306749692338,0.08434845217436023,0.9626223722995418,-0.0519573674644178,-0.10172925003972895,0.06762847966420449,-0.00993779126693908,-0.046666456491139645,-0.3094531550220686,-0.26982357950956354,0.08121194958237445,0.3579304804943837,-0.3464023730756758,-0.328915460565334,-0.08224898197434141,-0.38082907388182025,-0.006168912030872545,0.24915629157155778,-0.1588812051159828,-0.22825400642776283,-0.3117177150958111,0.0237051039403205,0.11922180642481489,-0.17610392617142928,-0.09360230383182563,-0.1746665337862457,-0.2998731999877307,-0.5869778579908557,0.015625268382631126,0.18160201102299103,-0.0906635000866622,-0.19358215066375267,-0.07534703342009101,-0.1630379159799965,-0.37493074182812425,-0.06551348136539054,0.002216799570210194,-0.06956535078936107,0.1645882741040023,-0.30616936459685423,0.1886924680388527,0.029895398444261208,-0.2364681350000155,0.003746062123094891,-0.11276891346894317,-0.6246184382844292,0.055209385772781394,0.22145010083057937,-0.2548445542540354,0.1534815482813374,-0.13313969402889292,0.13257602153645207,0.2347643126549554,-0.05657770280616039,-0.26822656272267464,-0.04109255569712622,0.22370543865226558,-0.267973445009579,0.1562508151916435,-0.21895197974399802,-0.1073619693451278,-0.0298569389891298,0.03570617932821911,0.46778823139394754,-0.14353994479263057,-0.17408794128886643,-0.1993539020945402,-0.06697876561242415,-0.017923541578389962,0.1552637763122723,-0.25376477595537134,-0.2518491631973677,0.06658486443508538,-0.1431238850261315,-0.3368690918869793,-0.07118993882366052,-0.06275744531190632,-0.3110468526890708,0.11269403559846501,0.20573929002463665,-0.2732141258301584,-0.03774400599583858,-0.02981254282079937,-0.14985799907145983,0.010538584191943,-0.32819026908170806,-0.18167492215863812,-0.019424053155769026,-0.23715299343081753,-0.04792793145485477,0.08826380918525303,-0.1121292125424586,0.17635405277784072,-0.015523264629679132,-0.23080071500787377,0.25688595816143517,-0.13186793903496785,0.2602326986767105,0.07786462328699302,-0.22050155619356687,-0.13406504382807408,-0.1634108236737336,-0.25448662478970424,-0.007506358151716942,-0.45292177480430373,0.06477357134335415,0.0928804338754712,-0.049180016936349755,-0.21003501242031244,-0.1861991311675528,0.08772826199086688,-0.0845436429273089,0.005367485152458945,0.021408809886576858,-0.08548442324197002,-0.37788531969228756,-0.1488582516161284,0.014420191409002876,-0.09347801127171469,0.031008249956402622,0.017962687780167262,0.03258379503660208,0.18263853825102824,-0.14401290083684587,-0.3208713395087683,-0.15453326413368115,0.1636557925121102,-0.005530240880120016,-0.04084313910370204,-0.4366688560615485,0.033305349475939515,-0.30642123313999203,0.022216229864907452,-0.10377850371020923,0.061203295471402235,0.09167582837303524,-0.0749094057228001,-0.35895656524892017,-0.031482285684441856,-0.023102884652899974,0.07967583862810183,-0.27701877962808924,0.03283128892135263,-0.18511290365706828,-0.16010733271424035,-0.20991727586262257,-0.18478422261619223,-0.12510212309631072,0.017797237125725972,-0.14995104471609785,-0.10387667371000318,-0.297098430206382,-0.17691259537169698,-0.018597828852228153,-0.12917940903422617,0.11140663056473155,-0.3082254366834413,0.05383030119308413,-0.053661863897569904,-0.11466865302772289,0.14812999146522027,-0.4147258786993113,-0.2583188122280021,-0.11626311927557907,0.21290885485512456,0.158029361588473,-0.14396062008795107,-0.27991283244380827,0.15810889323224192,-0.17409897817305184,-0.1468294361015167,-0.07594113542312798,0.04267266993564211,0.2593531586586431,-0.1349257118422278,-0.059104666371069,-0.2574889172670766,-0.025483177693435832,-0.25879083602413516,0.2075198960360432,0.15222606893885143,-0.3533741468909475,-0.015521044179779871,0.0556378389794425,-0.12441655219107244,0.3446694019899679,-0.16710298208457156,-0.1366321040776562,0.04270156873821851,0.052670345200200794,-0.04696508714294062,-0.06625709035768779,-0.1347019824529508,-0.05708600580723517,-0.10847314600210296,0.04703131101161504,-0.1419462262697214,-0.07291662740822753,0.3587164776548616,0.194897371685384,0.042634504639558785,-0.1048055764962606,-0.2364957000660066,-0.1448386171043308,0.033972366630540936,0.07034857051159318,0.33813659013998554,-0.14281309392645825,-0.6464142215550416,-0.2073658686208405,0.03414258386177566,0.045827438246757925,-0.5791754559541196,0.05708771535331151,-0.12829664107958522,-0.7062839302861783,-0.036912464282193934,-0.16918007592797926,-0.13539023225232766,-0.1196294756037064,-0.7046765306662116,-0.16683867376605183,-0.5211248302792898,0.32762194237947173,0.7207994426058166,0.1343816753656972,-0.25826570608606775,0.411163034929176,0.6497005274684525,0.26702742847664185,-0.11442961676437102,0.44509017095281883,-0.142901327675457,-0.05055405244631717,-0.06670369460516885,-0.009604313340960449,-0.22402599589506408,-0.9775401548180042,0.17457160103234373,-0.008176656827837008,-0.15325450645347685,-0.32567066363277924,-0.31815993796600595,-0.38979931000831675,0.18125948946572695,0.342259442981627,-0.07380190447792187,-0.5561000859154078,-0.002992484062251342,0.14124602114346174,-0.13050045550837278,0.17145835586267386,-0.2523592845271432,-0.2531304002919307,0.5194756217453959,-0.48741640890350274,-0.18137943702947737,-0.2575642584518094,0.29730790388941936,-0.014687727822417857,-0.10055989955815918,0.05952062048402393,0.22018693777688694,0.10833912600534326,-0.08023121252252727,0.010098287184534937,-0.406437005050567,0.12844982638197697,-0.2815984334696537,0.29740035105480755,0.32468140052682887,-0.04212301560985458,-0.3819491546254083,-0.1577552808648028,0.030764650080113268,-0.13681478548350626,0.06986484700999954,-0.24880846286342148,0.05253442035131536,-0.1528861265426454,0.346892172711939,-0.35062521921985385,-0.4223781378766721,0.16746358112896192,-0.5027938682315782,-0.06344374162701061,-0.23040117912936922,-0.6748595967476899,0.17931695801959413,0.3512146839526778,-0.2852021884868658,-0.15541790922989263,0.20840255587024037,0.2900401618722943,0.14912618902807634,-0.815610101878016,-0.10272776981946112,-0.5979597796428322,-0.48652328623651064,0.3233446881296102,-0.12153134061177663,-0.19777038251414306,-0.3637813211806966,0.1477735614191722,0.18107209586962308,-0.13383586095524977,-0.06511479573071184,-0.2427600373725402,0.025140017917088496,-0.33374315288255657,0.32259257174440115,-0.2116663317274419,-0.24409434606471994,0.11073157787055517,-0.04995008086042165,-0.3402277613752236,-0.29235756873713326,0.025763808717399236,0.196708960404997,0.07699520218296799,-0.48484413564988255,0.45112488802497397,-0.00794739674145223,-0.013968354274895473,0.2954286181789505,0.4075163975429603,-0.2297460799899603,0.10618458057415774,0.5100761396316335,-0.34363576992581063,0.2708909024372516,0.6111079563080601,-0.22035161643114082,-0.7517276055796741,-0.13458841228421578,0.09660129022901676,-0.15457349079587926,0.5341998414216909,-0.6037840820968436,-0.4844886361413266,0.15461129355673922,0.4870153628883411,0.15029137872784332,0.23884444596432552,-1.0486136533153139,-0.6296720654011041,0.4279429758521127,0.22768652599202407,0.8510313488756082,-0.23782858916876967,1.0547785068264524,-0.39414586454733963,0.10474623152850068,-0.16006952587299675,-0.4489454290326966,0.322584558761122,-0.1967157639855101,-0.21288929524845812,0.4361072806846969,-0.19562228166191498,0.08895848979296504,0.11313261321010841,-0.3154515424346022,-0.10260740710904365,-0.8959550887470652,-0.1849978932206858,0.19405833944065462,0.20198799097513254,-0.15283394230204903,0.624589066676836,0.048334301775257986,0.16226004277492986,-0.16086765261688762,0.46631256422247885,-0.24188300832665097,0.49557632984705796,0.3531233809656399,-0.1500899264492941,0.04640663889128897,0.46779538408125065,-0.41383396575081216,-0.3032321559096337,-0.17162520275051105,-0.09024465528338796,-0.3579726533166366,0.23079875089918098,0.8363771710279637,-0.11394639812705226,-0.2195955464729054,0.6703837408737237,-0.08045819747778497,-0.25527163054237756,0.03771157663159718,-0.08055825167308066,-0.40987586387438457,-0.28431216865993125,0.09328164526459143,-0.29984467724187447,-0.15061466099420145,0.21537846029445984,-0.24392535496756007,-0.06415231037779978,-0.12742162586578526,-0.10395445710221259,-0.2075908444751856,-0.015341454537782987,-0.029422085814247077,0.17064826391539017,0.0584768169984386,0.0704029451275214,-0.15666765201986063,-0.03970317953497959,-0.2206626934774207,-0.37852270778927005,0.03096099388757593,-0.21016528714004484,-0.020210096063809302,0.3538730996970894,-0.30325145365568784,0.1754963131235474,0.07056356914297553,-0.11001276587210679,-0.1333306476128872,-0.3958377330236946,-0.0996258485565065,-0.17709145427501724,-0.38530127158802013,-0.1142410370206678,-0.25747307244861684,-0.1655819969835049,0.1451198635820922,0.35817439900611847,0.42977992426351974,0.19664988252070303,-0.05615437564914986,-0.09895616746692495,-0.17445106566518492,-0.419035848717122,0.1762860934563546,-0.35581753131659327,-0.14005941162325847,0.19644233342418363,-0.29181500920431847,-0.1124659037757848,-0.29576850876600114,-0.07858389834029163,-0.006505120045863053,-0.23689349570646148,-0.19750607587923827,-0.3849521649234476,-0.22226913676504845,0.09059568281397735,-0.06169035542136336,0.34601149549416294,0.2905957233171895,0.08634440842979489,0.08242683749669812,0.6661175383683771,-0.21168048685534632,0.15303188397399836,0.12813563036285786,0.598448927721765,-0.05731126923493806,-0.12406311702458599,0.8118816333454129,-1.023703522522053,-0.0018502946821675338,0.4801583945130387,-0.707619039695505,0.7040436127384072,0.21312443123386557,0.4731484070993,0.5016665075277617,0.7056517328689158,0.2713622818615379,-0.06491482258334891,0.9281302020794074,-0.07502978917627486,0.15938849884479503,0.2896687992005946,0.01803869812295715,-0.0736214560555732,0.4411645954451289,-0.2277701365737137,0.5087379517773213,0.15123476088717644,0.24734357166391716,0.28977641635846485,0.2449682502704078,1.148858191973399,-0.07944397201104804,0.4417618413571255,0.893243582785538,-0.11211403886830124,0.45198154182132994,-0.12953163761661102,-0.15095058788749732,0.10375718957018007,-0.17550659141628105,-0.39564602315103753,0.08964020912426815,-0.10144509906072031,0.1271344996271034,-0.26478307267304335,-1.0234784699817014,-0.0028887988023893444,0.5168642597030374,-0.1465677760966131,0.6195263295560846,-0.23736173895776813,-0.4954496016563143,0.5181723137218942,0.4918698007696569,0.6886217905671368,0.6811820671775954,-0.7345516221553301,-0.12983299874222953,0.42905358037299396,0.4169523384699338,-0.295142410181735,-0.18711970280606488,-0.26935006268267453,-0.19718329241046145,-0.09000871144477904,0.031065412932545236,-0.7513750355797996,-0.09231767314094455,-0.09463805754718861,0.7609725434817637,-0.2174392326141972,-0.01052599636465942,-0.6467895647952944,0.06206745439678951,0.0957136254730312,0.2246699278447369,0.4189295155694744,-1.0494671452661377,0.07591177885604779,0.41310116591792007,-0.04899536778616047,-0.44901960233214644,-0.2462331279611095,-0.7620432857142317,0.41242108593423293,-0.00018653290148431726,-0.19088149679273525,-0.34000193642564597,0.3013722824137753,-0.37382200050784226,0.07871899595147229,0.05518838387030506,0.18953216649617471,0.2771081874748727,0.02717934112493314,-0.1957721553623697,-0.47923996193384516,-0.14262083037735593,-0.256789426790228,-0.04220812937650851,-0.365777415065447,-0.042004388203895564,-1.2278555325109435,0.018829762567217186,0.04677819714135639,-0.023608660661041222,0.19323606053883008,0.008398441133484062,-0.44750926692841125,0.35690943823853993,-0.04081895749477632,0.11290059363887661,0.19642967974478118,-0.3429610278626443,-0.30673411778515447,-0.13924689675171717,0.6319651365183276,-0.44291030595447695,-0.21032740833714167,0.6462028092405209,-0.33558569584159625,0.11012097294703878,-0.29407567919260247,0.16853044759744598,-0.14963732405082775,-0.01425937508661998,-0.18005742537674777,-0.018312119220603447,-0.1853773068742904,-0.03672511233626456,0.24605690175362793,